tree
version=v4
num_class=1
num_tree_per_iteration=1
label_index=0
max_feature_idx=55
objective=binary sigmoid:1
feature_names=combined_ret_1 combined_ret_4 combined_ret_16 combined_ret_48 combined_ret_96 combined_trend_4 combined_trend_16 combined_trend_48 combined_trend_96 combined_vol_4 combined_vol_16 combined_vol_48 combined_vol_96 volume_ratio_4 volume_ratio_16 volume_ratio_48 volume_ratio_96 ema_ratio_8_32 ema_ratio_16_64 ema_ratio_32_128 rsi_14 rsi_28 dist_mean_16 dist_mean_48 dist_mean_96 zscore_16 zscore_48 zscore_96 is_ndax is_synthetic is_synthetic_gap_fill effective_monthly_weight supervised_row_weight_feature synthetic_share_16 synthetic_share_48 synthetic_share_96 gap_fill_count_16 gap_fill_count_48 gap_fill_count_96 external_ret_1 external_ret_4 external_ret_16 external_vol_1 external_vol_4 external_vol_16 ndax_ret_1 ndax_ret_4 ndax_ret_16 ndax_present_1 ndax_present_4 ndax_present_16 basis_level basis_zscore_96 external_ctx_available ndax_ctx_available basis_available
feature_infos=[-0.28200000524520874:0.34087017178535461] [-0.39780646562576294:1.1465533971786499] [-0.41134351491928101:1.4303684234619141] [-0.46665275096893311:1.5930397510528564] [-0.54217702150344849:2.7021458148956299] [-0.11259344965219498:0.25234624743461609] [-0.028756307438015938:0.072091273963451385] [-0.010861850343644619:0.02415006048977375] [-0.0068997540511190891:0.018009720370173454] [0:0.31490656733512878] [0:0.22719690203666687] [0:0.18710348010063171] [0:0.13731458783149719] [0:4.0000014305114746] [0:16.000005722045898] [0:48] [0:96] [-0.1913035660982132:0.42871066927909851] [-0.36000627279281616:0.29998943209648132] [-0.42160138487815857:0.54053658246994019] [0:99.9833984375] [0:99.784942626953125] [-0.37185493111610413:0.81174850463867188] [-0.40593650937080383:1.1212369203567505] [-0.41703033447265625:1.0487204790115356] [-3.872983455657959:3.872983455657959] [-6.8556547164916992:6.8556547164916992] [-9.7467947006225586:9.7467947006225586] [0:1] [0:1] none [0.25:1] [0.25:1] [0:1] [0:1] [0:1] [0:15] [0:44] [0:82] [-0.28200000524520874:0.34087017178535461] [-0.39780646562576294:1.1465533971786499] [-0.40380683541297913:1.4303684234619141] [0:0.34087017178535461] [0:0.31490656733512878] [0:0.22719690203666687] [-0.26399281620979309:0.28787878155708313] [-0.34566259384155273:0.28787878155708313] [-0.34339118003845215:0.69850748777389526] [0:1] [0:1] [0:1] [0:1.145026683807373] [-5.128908634185791:6.0956301689147949] [0:1] [0:1] [0:1]
tree_sizes=3542 3659 3629 3660 3628 3652 3629 3659 3655 3665 3665 3636 3642 3658 3656 3641 3674 3652 3681 3652 3647 3673 3650 3663 3668 3652 3651 3673 3671 3658 3664 3653 3660 3655 3663 3671 3668 3655 3658 3662 3653 3634 3644 3648 3652 3660 3667 3675 3662 3656 3667 3655 3653 3662 3663 3658 3653 3638 3658 3657 3667 3665 3665 3637 3644 3649 3648 3648 3637 3673 3667 3663 3650 3644 3656 3672 3645 3653 3654 3656 3655 3616 3672 3639 3617 3671 3670 3626 3648 3670 3673 3640 3613 3664 3654 3629 3657 3640 3653 3627 3637 3659 3616 3627 3657 3646 3635 3639 3604 3579 3608 3609 3631 3616 3579 3595 3643 3544 3496 3612 3562 3561 3542 3614 3583 3608 3618 3634 3603 3558 3620 3613 3530 3598 3644 3554 3658 3607 3522 3580 3538 3619 3573 3603 3507 3515 3648 3543 3594 3494 3548 3549 3544 3623 3611 3577 3569 3555 3599 3581 3530 3547 3538 3525 3601 3582 3551 3510 3522 3552 3509 3538 3510 3589 3521 3532 3528 3573 3602 3535 3508 3498 3509 3507 3654 3534 3495 3571 3589 3520 3521 3562 3581 3563 3494 3508 3540 3495 3540 3476

Tree=0
num_leaves=31
num_cat=0
split_feature=9 11 34 10 52 52 44 22 44 52 10 9 12 42 5 10 10 20 12 20 52 10 12 22 52 11 5 20 25 22
split_gain=42619 13552.3 9192.57 6925.81 4256.29 3457.15 2988.47 2698.6 2079.21 1979.4 1600.59 955.81 1002.68 949.628 815.7 744.76 665.748 602.21 632.545 583.436 616.497 509.486 496.946 490.787 464.1 420.314 413.85 412.377 386.941 314.747
threshold=0.0028907887171953921 0.0062743304297328004 0.94791665673255932 0.0025061358464881782 1.0000000180025095e-35 0.010160960257053377 0.0041681418661028155 -0.01994576025754213 0.0040289203170686969 -0.36471304297447199 0.0092625324614346045 0.00036121557059232151 0.0037925336509943013 0.0086416755802929419 -0.0025897687301039691 0.0032153668580576782 0.0018116996507160368 1.0000000180025095e-35 0.0051283645443618306 1.0000000180025095e-35 -0.82184672355651844 0.0061907782219350347 0.0043990989215672025 -0.050477048382163041 -1.3000364303588865 0.011112086940556766 -0.0021509425714612003 1.0000000180025095e-35 -1.7442320585250852 -0.013760255184024571
decision_type=2 2 2 2 2 2 2 2 2 2 2 2 2 2 2 2 2 2 2 2 2 2 2 2 2 2 2 2 2 2
left_child=3 4 9 16 6 8 15 23 11 27 21 -5 24 22 -10 -2 -1 -16 -19 -17 -21 -9 -8 -4 -13 -12 -14 -3 -22 -24
right_child=1 2 7 5 -6 -7 13 10 14 -11 25 12 26 -15 17 19 -18 18 -20 20 28 -23 29 -25 -26 -27 -28 -29 -30 -31
leaf_value=-1.854130452651491 -1.820757049478716 -1.8180591430117286 -1.650820976201099 -1.8432014417063718 -1.8546721746114296 -1.8581898979152562 -1.7989653585070353 -1.7714347659761647 -1.7577093947605207 -1.8290173782484829 -1.7422202251217422 -1.7013083069756625 -1.7780196981674359 -1.7553090936830138 -1.8357716782352247 -1.8445794923990035 -1.8402742177749958 -1.8110839360495599 -1.786023818925577 -1.7480380406449401 -1.7777767628305876 -1.7517560766957248 -1.7576843826846891 -1.708346752507061 -1.8306517198769821 -1.7191252378869801 -1.8110088283751511 -1.7478273233221455 -1.8039118721917466 -1.7826084663779889
leaf_weight=23064.536926992238 6872.5406174138188 255.78847408294678 422.95845728367567 4556.8267638981342 3138.826003074646 5096.4007377624512 4568.8634106591344 5209.1170807182789 1164.4242546930909 4366.9806903228164 4015.3704572021961 69.848532676696777 1044.5800010077655 3231.6236892640591 1161.004878282547 720.02504944801331 13888.98264592886 4732.7116790451109 5381.077441457659 581.78864479064941 1618.2004214040935 8923.671729106456 1447.7740002945065 3005.0625530742109 9769.5932663567364 3867.6150737069547 10577.480094280094 1142.8769445419312 11347.320445053279 10125.860801722854
leaf_count=424912 202529 2113 13968 40534 25929 42100 143546 171971 37938 36108 132611 577 32452 101471 9683 6076 399498 146620 155986 4806 45660 294715 42947 99245 308071 127758 309236 9441 324447 322346
internal_value=-1.80775 -1.78059 -1.75543 -1.833 -1.79858 -1.81949 -1.79423 -1.74252 -1.81437 -1.81244 -1.74894 -1.8224 -1.81799 -1.78005 -1.79755 -1.80724 -1.84892 -1.80167 -1.79775 -1.80072 -1.79839 -1.75901 -1.785 -1.70125 -1.82973 -1.73089 -1.80804 -1.76067 -1.80065 -1.77949
internal_weight=155370 74862.3 31209.4 80507.5 43652.8 43553.9 40514 25443.8 38457.5 5765.65 22015.8 26018.3 21461.5 19374.1 12439.2 21139.9 36953.5 11274.8 10113.8 14267.3 13547.3 14132.8 16142.5 3428.02 9839.44 7882.99 11622.1 1398.67 12965.5 11573.6
internal_count=4015294 2107687 887930 1907607 1219757 1083197 1193828 840268 1041097 47662 727055 690870 650336 610310 350227 583518 824410 312289 302606 380989 374913 466686 508839 113213 308648 260369 341688 11554 370107 365293
is_linear=0
shrinkage=1


Tree=1
num_leaves=31
num_cat=0
split_feature=9 11 34 10 52 52 44 22 44 52 10 5 40 10 5 20 52 12 20 12 20 45 10 12 22 25 12 20 10 52
split_gain=38390.8 11442.2 7641.3 6621.9 3914.32 3258.56 2623.68 2072.29 2054.15 1757.87 1272.91 859.499 785.42 759.48 702.768 672.104 708.365 664.01 555.632 561.619 554.959 528.813 508.573 455.48 392.489 379.134 372.657 346.83 313.368 311.48
threshold=0.0028907887171953921 0.0062743304297328004 0.94791665673255932 0.0023977585369721059 1.0000000180025095e-35 0.010160960257053377 0.0043415527325123557 -0.018448844552040097 0.0040289203170686969 -0.36471304297447199 0.0082952580414712446 -0.001761596882715821 -0.015127410646528004 0.0032375263981521134 -0.0025897687301039691 1.0000000180025095e-35 -0.93425652384757985 0.0034863571636378769 1.0000000180025095e-35 0.0048746084794402131 1.0000000180025095e-35 -0.0025316820247098799 0.0017549959593452515 0.010657025035470726 -0.040991589426994317 -1.7951114773750303 0.0047348120715469131 1.0000000180025095e-35 0.0055521228350698957 -0.42897401750087732
decision_type=2 2 2 2 2 2 2 2 2 2 2 2 2 2 2 2 2 2 2 2 2 2 2 2 2 2 2 2 2 2
left_child=3 4 9 22 6 8 13 24 11 27 28 -5 -8 -2 -10 -13 -17 -18 -16 -20 -15 -22 29 -12 -4 -23 -14 -3 -9 -1
right_child=1 2 7 5 -6 -7 12 10 14 -11 23 15 26 20 18 16 17 -19 19 -21 21 25 -24 -25 -26 -27 -28 -29 -30 -31
leaf_value=-0.030451393047922954 -0.012196124851792084 -0.0098693516388744813 0.12190602410679761 0.012529886996687232 -0.046157497839847225 -0.049816647722187329 0.057406252754422508 0.029126984834258265 0.04583011105268911 -0.020525163246916136 0.056806654633915779 -0.039655792492246267 0.013633481984408339 -0.035342661678922214 -0.027136412180098518 0.042909927260007703 -0.027533406187131189 -0.0093236696739877611 -0.0048621384448195052 0.019060789174241765 0.047113234146751184 0.030433653467986654 -0.033174760249561522 0.077745909762076126 0.083824577351695906 0.0043871781013885445 0.029322993692862783 0.054489713494754934 0.047052797643406294 -0.048270899484512575
leaf_weight=2827.0816485285759 7035.9904297236353 253.89823433756828 854.36371394619346 2602.4411314260215 3034.0128821879625 5053.2364633232355 1898.1086761727929 3418.2177730575204 1206.6615521721542 4300.5501015856862 6105.921763330698 3050.203789036721 6079.6587121114135 720.24334013462067 1157.2759045865387 522.47973863780499 7911.4273196049035 13632.67113154009 4108.7949193045497 6088.9670032989234 883.61994616687298 1569.8657653965056 12399.346403475851 4519.3524531126022 3252.165812086314 12696.987295152619 10026.121514763683 1192.6078423708677 8501.9904240481555 18500.187344435602
leaf_count=24151 209048 2113 25747 81338 25929 43281 58231 109928 37938 36108 192581 25991 188446 6242 9848 4343 253175 387419 127770 174929 7167 46421 365859 140880 100468 368977 309296 9441 270664 371565
internal_value=-2.98047e-05 0.02526 0.0478037 -0.0244505 0.00863923 -0.0119694 0.0127031 0.0590795 -0.00722142 -0.00448759 0.0531292 -0.0148224 0.0269856 0.00147746 0.00955126 -0.0176565 -0.0146156 -0.0160107 0.00569603 0.00942197 0.00753939 0.00957798 -0.0412272 0.065713 0.0917474 0.00725323 0.0234005 0.0431931 0.0419124 -0.0459088
internal_weight=155404 76343.7 32399.1 79060.8 43944.6 45334.2 40910.6 26652 40280.9 5747.06 22545.5 27719.2 18003.9 22906.7 12561.7 25116.8 22066.6 21544.1 11355 10197.8 15870.7 15150.5 33726.6 10625.3 4106.53 14266.9 16105.8 1446.51 11920.2 21327.3
internal_count=4015294 2107687 887930 1907607 1219757 1146032 1193828 840268 1102751 47662 714053 752266 555973 637855 350485 670928 644937 640594 312547 302699 428807 422565 761575 333461 126215 415398 497742 11554 380592 395716
is_linear=0
shrinkage=0.05


Tree=2
num_leaves=31
num_cat=0
split_feature=10 31 10 10 52 11 12 20 52 0 25 22 12 22 22 15 43 10 9 52 45 52 20 22 9 12 52 52 13 13
split_gain=34709.6 16965.7 8887.7 4441.8 4095.51 1755.5 1679.02 1449.06 1261.34 1034.38 944.249 904.804 791.175 711.453 586.691 471.487 466.418 465.614 450.583 446.149 424.777 400.666 390.849 393.161 365.092 359.246 312.437 308.769 302.293 298.537
threshold=0.0036422434495761995 0.44220440089702612 0.0063847247511148461 0.0023311777040362362 -0.36471304297447199 0.009574182331562044 0.0047348120715469131 1.0000000180025095e-35 1.0000000180025095e-35 -0.0013753187959082422 -1.2078500390052793 -0.011404648423194884 0.0034660286037251358 -0.012990514282137154 -0.021760340780019757 0.0099407681263983267 1.0000000180025095e-35 0.001635303895454854 0.0064257653430104264 0.31940279901027685 -0.0016005642246454952 -1.1981894373893736 1.0000000180025095e-35 -0.0091926115565001947 0.003611006424762309 0.006498961942270399 -1.2771114110946653 -0.35166387259960169 3.9200642108917241 3.8141801357269292
decision_type=2 2 2 2 2 2 2 2 2 2 2 2 2 2 2 2 2 2 2 2 2 2 2 2 2 2 2 2 2 2
left_child=3 2 6 17 7 10 13 -3 12 16 -4 -8 20 -2 -7 26 28 27 -12 -11 -5 -14 -23 -24 -15 -13 -9 -1 -6 -17
right_child=1 4 5 8 9 14 11 15 -10 19 18 25 21 24 -16 29 -18 -19 -20 -21 -22 22 23 -25 -26 -27 -28 -29 -30 -31
leaf_value=-0.030594632835249137 0.037004551252346224 -0.021043032026289987 0.068024810126761079 0.052529697180342762 0.045456683203775994 0.096756501030529227 0.050077457145732564 0.045862990339090207 -0.050131950918187708 -0.029197078612385387 0.031201771512349364 0.016997277023364874 0.042306620006151319 -0.0058237755252469308 0.065368903380520815 0.068474623205720647 -0.017024103079884403 -0.033617642585710213 0.049196604553780006 -0.047813820095348854 -0.022891923114722205 -0.036759804023277366 0.020275910583265059 -0.0071725103851022808 0.010174132865060284 0.03084874477913592 0.0072826947398344291 -0.04842770954382708 -0.027553483995094875 0.017021601112687901
leaf_weight=2865.6389160975814 1562.8885132391006 1586.0850580409169 3525.462903752923 189.53051266074181 661.85284738987684 1812.860754262656 3341.0820839852095 818.71565479040146 2338.1442889720201 8714.5016413703561 7926.711970217526 12967.792029386386 426.7687117010355 7808.418491601944 8328.3457966037095 1222.7267870828509 1440.0787468589842 13883.658267948776 6199.3774939607829 5102.5169732570648 12433.644093517214 1021.3322371933609 1420.3448832705617 16008.425496093929 6564.4076929055154 7325.2177489809692 1461.642067246139 15867.843834705651 180.42409692704678 366.3897395208478
leaf_count=25052 49606 13562 105960 1561 5409 51889 103892 6498 20685 74327 247537 415692 3530 258029 249424 9540 12348 412433 190467 44812 396107 9035 43654 490913 212643 232171 11694 312438 1515 2871
internal_value=-5.45625e-05 0.0203759 0.0327304 -0.0273906 -0.0182339 0.0544011 0.0175096 0.019206 -0.0146994 -0.0309211 0.0448762 0.0259669 -0.0120693 0.00496662 0.0709798 0.035704 0.00026213 -0.040557 0.039099 -0.0360721 -0.0217595 -0.00558941 -0.0066973 -0.00493562 0.00148285 0.0219973 0.0211342 -0.0456998 0.0298172 0.0566115
internal_weight=155373 88917.5 67362.6 66455.3 21554.9 27792.8 39569.8 5455.56 33838.2 16099.4 17651.6 23634.1 31500 15935.7 10141.2 3869.47 2282.36 32617.1 14126.1 13817 12623.2 18876.9 18450.1 17428.8 14372.8 20293 2280.36 18733.5 842.277 1589.12
internal_count=4015294 2299886 2117310 1715408 182576 845277 1272033 44165 965485 138411 543964 751755 944800 520278 301313 30603 19272 749923 438004 119139 397668 547132 543602 534567 470672 647863 18192 337490 6924 12411
is_linear=0
shrinkage=0.05


Tree=3
num_leaves=31
num_cat=0
split_feature=9 11 35 10 52 52 9 11 52 12 9 15 5 22 12 12 10 42 52 46 52 52 0 42 10 52 1 20 12 44
split_gain=31735.3 9637.61 6223.13 4974.16 2672.17 2597.89 1944.38 1814.38 1686.38 1467.55 1743.11 840.469 772.629 619.441 597.269 562.061 454.137 398.648 414.455 380.377 365.1 343.163 318.003 309.759 308.851 298.201 294.492 292.981 274.228 264.387
threshold=0.0026316714938730006 0.0056699393317103395 0.22916666418313983 0.0023977585369721059 1.0000000180025095e-35 0.010160960257053377 0.0072942683473229417 0.0037007137434557085 -0.36471304297447199 0.00410134973935783 1.0000000180025095e-35 1.0503702759742739 -0.0037239425582811232 -0.025541521608829495 0.0061899016145616778 0.007614241912961007 0.0016014192369766536 0.0069502529222518214 -0.9532836079597472 -0.0037271289620548482 0.13284390419721606 -0.63979980349540699 -0.0049138623289763919 0.0099834124557673948 0.011705892626196148 -0.35166387259960169 -0.0089909574016928655 1.0000000180025095e-35 0.0030798400985077028 0.0037663934053853159
decision_type=2 2 2 2 2 2 2 2 2 2 2 2 2 2 2 2 2 2 2 2 2 2 2 2 2 2 2 2 2 2
left_child=3 4 8 16 7 9 12 17 27 19 21 22 -4 -8 26 -14 25 18 -2 -5 -10 -11 -9 -13 -15 -1 -12 -3 -21 -24
right_child=1 2 6 5 -6 -7 13 11 20 10 14 23 15 24 -16 -17 -18 -19 -20 28 -22 -23 29 -25 -26 -27 -28 -29 -30 -31
leaf_value=-0.030143288921005443 0.040990128672169376 -0.0089410987042551557 0.06202081599111281 0.04030480330334954 -0.045644989728704878 -0.048820127936694532 0.085148186672163673 0.024708963399698546 -0.0080759613062756329 -0.0064249617246806019 0.02677274901759228 0.02307265497484378 0.025446764581390072 0.050388142843192797 0.023380446988667397 0.042870316231793659 -0.03299123981201512 0.018042121211510651 -0.012880650650962642 -0.030400741073617843 -0.034744027595076006 -0.037132868886283997 -0.0032768148547084779 0.0497705603965252 0.067752516415187744 -0.048029698541748329 -0.00078899762567988566 0.043800979096143271 -0.016207871658452451 0.01035440933088976
leaf_weight=2766.8807681426406 368.45996858924627 316.47325669229031 2595.8202067892998 253.55213737487793 2581.7686114907265 4512.3869245499372 2143.8928219899535 2470.2428612802178 2795.5046965423971 1305.0612757354975 1072.0998823717237 7641.951929487288 10778.9952044487 8024.4158680066466 4531.1196099482477 8111.9546713735908 13439.885382128879 1291.2298259083182 11514.878095954657 5406.3468795828521 2372.7602586448193 3003.8243215139955 5601.6519045755267 1266.5086266882718 3760.9777634739876 14766.681389607489 10094.693640084937 1567.3838797286153 9186.3636858854443 9746.5782495625317
leaf_count=24743 2957 2684 74914 2087 23545 41457 58068 68844 24046 11019 32508 223618 331040 235399 127899 241323 416677 39911 351027 168989 20968 26459 143832 37585 106535 296125 301770 11729 273125 294411
internal_value=-7.64066e-05 0.0204911 0.0373351 -0.0249167 0.00365302 -0.0131225 0.045876 0.00684278 -0.00555752 -0.00850073 0.000337505 0.0143285 0.0364432 0.0604266 0.00806973 0.0329286 -0.0399065 -0.0083433 -0.0112103 -0.0204111 -0.0203193 -0.0278322 0.00805914 0.0268683 0.0559295 -0.0452071 0.00185715 0.0349407 -0.0214661 0.00537941
internal_weight=155290 84951.4 42468.2 70338.9 42483.3 39365.4 35416.1 39901.5 7052.12 34853.1 20006.8 26726.9 21486.8 13929.3 15697.9 18890.9 30973.4 13174.6 11883.3 14846.3 5168.26 4308.89 17818.5 8908.46 11785.4 17533.6 11166.8 1883.86 14592.7 15348.2
internal_count=4015294 2292436 1106706 1722858 1185730 985313 1047279 1162185 59427 943856 499655 768290 647277 400002 462177 572363 737545 393895 353984 444201 45014 37478 507087 261203 341934 320868 334278 14413 442114 438243
is_linear=0
shrinkage=0.05


Tree=4
num_leaves=31
num_cat=0
split_feature=10 31 10 52 10 12 12 20 0 52 12 25 22 25 1 52 52 52 43 9 22 52 16 10 20 13 12 20 20 12
split_gain=28820 13229.6 7195.01 3737.8 3438.65 1475.26 1285.9 1256.54 1030.88 985.786 736.945 711.715 646.089 575.119 568.237 504.741 469.518 437.537 406.205 357.331 332.606 322.484 310.801 300.838 285.342 285.292 274.462 259.426 225.974 218.152
threshold=0.0034696859074756507 0.44220440089702612 0.0060076282825320968 -0.40211807191371912 0.0021470906212925915 0.0082076587714254873 0.0045965998433530339 12.21970844268799 -0.0018018173868767915 1.0000000180025095e-35 0.0030120459850877528 -1.2572370171546934 -0.012000546324998139 -1.7951114773750303 -0.019675989635288712 -1.1268175840377805 0.31940279901027685 -1.2186718583106992 1.0000000180025095e-35 0.0058838406112045058 -0.010859030764549969 -0.51904305815696705 1.0176569819450381 0.0016014192369766536 1.0000000180025095e-35 3.9200642108917241 0.0062280620913952598 1.0000000180025095e-35 1.0000000180025095e-35 0.0046204729005694398
decision_type=2 2 2 2 2 2 2 2 2 2 2 2 2 2 2 2 2 2 2 2 2 2 2 2 2 2 2 2 2 2
left_child=4 2 6 7 21 11 13 -3 18 10 -6 -4 -8 -2 -7 28 24 -9 25 -13 -17 -1 -15 -23 -10 -5 -14 -22 -12 -29
right_child=1 3 5 8 9 14 12 17 16 -11 15 19 26 22 -16 20 -18 -19 -20 -21 27 23 -24 -25 -26 -27 -28 29 -30 -31
leaf_value=-0.024436093567850148 0.0316290127094059 -0.015832816873701652 0.05483745881972351 0.043796610692821064 -0.026771687678470296 0.076710340569573376 0.042075884546724687 0.056804799689424736 -0.039704221337533249 -0.04925739871516905 -0.0032202514905651223 0.022075619240972927 0.012616532078693147 -0.0062873770249148725 0.051085448881785116 0.017694038605901238 -0.046540391173327485 0.021523679065246021 -0.014549568394935526 0.037945283125415841 -0.036342768081087738 -0.047045945074183942 0.009046138601496936 -0.035571908699450018 -0.021044944508557189 -0.027117035132394732 0.024369319726001679 -0.014020836493588663 0.063214782855862489 -0.0022747203075836079
leaf_weight=2729.8370988741517 1479.7419594917446 1836.8588296994567 3393.8216081615537 683.42822670936584 8495.4236490670592 2587.4014392793179 2945.3497256021947 1396.7374057024717 3128.4495573379099 2153.1290723010898 205.78400426357985 7722.4091935418546 13090.01757655479 9714.8039711639285 13203.458397923037 987.89497648738325 5023.181124791503 2369.5987412258983 1398.7767591588199 6560.5467693135142 1039.7346083857119 14650.384197706357 5008.5358598977327 9364.0611366759986 5937.3952404595912 178.97251959890127 8005.5373459290713 14028.324769070372 338.62186005711555 5503.6617181897163
leaf_count=24901 45705 15766 95274 5393 282005 68333 86951 10494 28264 20377 1753 234322 413515 320815 369529 29027 47263 18196 12281 191197 9576 300344 162884 301316 51659 1530 245156 452585 2684 166199
internal_value=-9.38254e-05 0.0169002 0.0270474 -0.0171708 -0.0274184 0.0441774 0.0128019 0.0180721 -0.0292485 -0.0165564 -0.0142554 0.0342555 0.0201394 0.00191507 0.0552842 -0.00944497 -0.0342781 0.0346076 0.00209052 0.029365 -0.0106456 -0.0407207 -0.00107127 -0.0425718 -0.0274839 0.02908 0.0170766 -0.0120065 0.0381025 -0.0107111
internal_weight=155162 95665 73711.6 21953.4 59496.9 33467.6 40244 5603.19 16350.2 32752.6 30599.4 17676.8 24040.9 16203.1 15790.9 22104 14089 3766.34 2261.18 14283 21559.6 26744.3 14723.3 24014.4 9065.84 862.401 21095.6 20571.7 544.406 19532
internal_count=4015294 2424527 2233681 190846 1590767 958655 1275026 44456 146390 964206 943829 520793 745622 529404 437862 661824 127186 28690 19204 425519 657387 626561 483699 601660 79923 6923 658671 628360 4437 618784
is_linear=0
shrinkage=0.05


Tree=5
num_leaves=31
num_cat=0
split_feature=9 10 31 10 52 52 11 52 12 9 10 25 12 22 52 42 10 12 12 45 52 20 52 0 46 1 9 52 1 24
split_gain=26468.7 7619.01 5325.6 4241.91 2246.55 1818.46 1804.56 1689.16 1249.51 1408.7 1207.85 754.693 570.151 533.652 415.478 410.066 390.781 363.531 343.267 324.577 323.432 312.907 293.682 265.22 257.612 249.704 238.006 219.669 213.505 211.641
threshold=0.0025529377162456517 0.0049757233355194339 0.45290082693099981 0.0023535287473350768 0.010160960257053377 1.0000000180025095e-35 0.0079702422954142111 -0.36471304297447199 0.0038129616295918827 1.0000000180025095e-35 0.0031544700032100086 -1.4539973735809324 0.0057479895185679206 -0.017136383801698681 0.38579386472702032 0.00717675848864019 0.0016014192369766536 0.0041225915774703034 0.0052573729772120723 -0.0023915919009596105 -0.60862839221954335 1.0000000180025095e-35 -0.35166387259960169 -1.0000000180025095e-35 -0.0027681356295943256 -0.0075566358864307395 0.0090737077407538908 -1.0437559485435484 -0.012354481965303419 -0.043624699115753167
decision_type=2 2 2 2 2 2 2 2 2 2 2 2 2 2 2 2 2 2 2 2 2 2 2 2 2 2 2 2 2 2
left_child=3 5 6 16 8 10 11 21 24 20 -2 29 25 -8 23 17 22 19 -13 -12 -10 -4 -1 -9 -5 -11 -15 -27 -14 -3
right_child=1 2 7 4 -6 -7 13 14 9 12 15 18 28 26 -16 -17 -18 -19 -20 -21 -22 -23 -24 -25 -26 27 -28 -29 -30 -31
leaf_value=-0.028513222976156112 -0.012607488234248551 0.066797054851944496 -0.011854309158929918 0.030880726436244912 -0.047693754249802843 -0.045976259327269502 0.065920883765077515 0.0096822483939224598 -0.0072492247413169751 0.017822979871253152 0.045018616720517449 0.014885082749759882 0.048749429767129773 0.039939927459074855 -0.037880283558536912 0.024987964073059487 -0.031846057314320199 0.010866702531781193 0.028910481406921703 -0.0044440042869731697 -0.0359517241820414 0.037137323921494707 -0.046710437058895375 -0.018138436329142988 -0.023025695970112534 0.047838708511548117 0.053265685351546681 -0.0054795893459042662 0.014567651701639928 0.04124417784631406
leaf_weight=2644.6564431786537 9122.5310399513692 1120.5685422755778 386.06598202884197 225.96815849840641 4185.1020107343793 1999.4131757095456 3810.4983918480575 1188.4232555627823 1446.6228838264942 1435.5498297996819 346.44494844973087 6218.9326800443232 500.33307546563447 9049.1273079589009 2025.8664620444179 3306.8166413940489 11847.707316337153 14569.503114556894 14614.82909736596 7776.1662342716008 3052.4995197243989 2092.0135770365596 13718.325988037512 3068.7157148681581 11539.281376637518 196.98228036612272 5321.097817696631 10000.963208423927 5254.5282302238047 2926.8354274686426
leaf_count=24691 282781 30305 3305 1836 41240 19360 96250 9989 12261 43100 2635 191356 14218 250553 19222 97932 385214 418157 426243 236189 28250 15107 295794 27266 365245 1526 141847 306309 144831 82282
internal_value=-0.000109252 0.0176963 0.0300817 -0.024087 -0.0131458 0.000405553 0.0373114 -0.00545369 -0.0088494 -0.0017857 0.003046 0.028562 0.00466663 0.0492854 -0.0192417 0.00853851 -0.0387619 0.00614141 0.0247239 -0.00233433 -0.0267229 0.0295048 -0.0437693 -0.010372 -0.0219903 -0.0017013 0.0448743 -0.0044497 0.0175394 0.0483188
internal_weight=154992 88943.8 51823 66048.5 37837.8 37120.9 43061.9 8761.08 33652.7 21887.5 35121.5 24881.2 17388.4 18180.7 6283.01 25998.9 28210.7 22692.1 20833.8 8122.61 4499.12 2478.08 16363 4257.14 11765.2 11633.5 14370.2 10197.9 5754.86 4047.4
internal_count=4015294 2350779 1293725 1664515 958816 1057054 1218836 74889 917576 550495 1037694 730186 509984 488650 56477 754913 705699 656981 617599 238824 40511 18412 320485 37255 367081 350935 392400 307835 159049 112587
is_linear=0
shrinkage=0.05


Tree=6
num_leaves=31
num_cat=0
split_feature=10 31 10 52 10 12 20 12 0 52 22 0 12 22 42 52 52 43 52 52 12 15 20 13 16 11 12 20 22 16
split_gain=24064.7 10343.2 6113.8 3406.25 2548.46 1224.54 1112.84 1061.52 1006 715.685 550.94 541.068 522.553 506.777 458.212 442.442 441.118 398.958 360.903 322.299 311.051 276.393 262.8 260.608 242.383 238.198 223.092 213.537 243.278 210.652
threshold=0.0032796786399558191 0.44220440089702612 0.005710447672754527 -0.36471304297447199 0.0021470906212925915 0.0075433489400893458 1.0000000180025095e-35 0.0043767821043729791 -0.0014173876261338589 0.044920435175299651 -0.010583802592009304 -0.009377301670610903 0.0030798400985077028 -0.025541521608829495 0.0054905631113797435 -0.93425652384757985 0.38579386472702032 1.0000000180025095e-35 -1.3000364303588865 0.073749359697103514 0.0024264057865366344 0.83443111181259166 1.0000000180025095e-35 3.9200642108917241 0.0011172206141054632 0.012719186022877695 0.0061899016145616778 1.0000000180025095e-35 -0.0083995000459253771 0.81876853108406078
decision_type=2 2 2 2 2 2 2 2 2 2 2 2 2 2 2 2 2 2 2 2 2 2 2 2 2 2 2 2 2 2
left_child=4 2 7 6 19 11 -3 14 17 12 -9 -4 -6 -7 -2 24 22 23 -14 20 -1 -13 -10 -5 -8 -15 29 -20 -29 -12
right_child=1 3 5 8 9 13 15 10 16 -11 26 21 18 25 -16 -17 -18 -19 27 -21 -22 -23 -24 -25 -26 -27 -28 28 -30 -31
leaf_value=-0.044177089375801754 -0.0053965428395993664 -0.0192394859789684 0.053468174483650759 0.038305998967851307 -0.025407679515412337 0.066429907174197597 0.029753175435678417 0.033226234662228155 -0.038839959599862646 -0.048879744893002203 0.0047082391903876626 0.01858675686754499 0.041171628768534335 0.038838044624029483 0.016507846493153178 0.011548201203882898 -0.046146733293518767 -0.015256281618073556 -0.033512105484268438 -0.052525193505060463 -0.031852221695037194 0.031689873550933584 -0.021051464307645176 -0.027122818918892025 0.061888485048452152 0.052106464643901243 0.019462795990485657 0.01084230993248355 -0.011551607666708714 0.017477254690846628
leaf_weight=8530.6180009078234 12682.162633411586 1677.5628471076488 1765.9913335554302 803.94032061845064 8201.2185827419162 2433.7524222582579 1423.742289096117 3655.0059822816402 3145.0697174482048 1661.9892450645566 10153.666865706444 9173.3439473379403 336.79338391125202 13630.774203980342 2941.2047817651182 2077.7861201688647 4524.2463324144483 1446.1201914511621 999.96679471246898 3834.8471234068274 12801.526634218171 7170.3510268218815 6109.7755020260811 187.72927688062191 998.16903629153967 4498.9474890101701 7254.7596036233008 1322.5752294603735 14609.45367571339 4736.6677208282053
leaf_count=288607 423841 14944 47199 6138 282906 57993 10547 105155 29944 16901 320585 266949 2686 367050 92087 15717 45671 13071 9599 38893 299061 204441 55017 1620 6985 115107 217021 41283 470944 147332
internal_value=-0.000121379 0.0139616 0.0223603 -0.0160782 -0.0277199 0.0366571 0.0155174 0.00901284 -0.0281134 -0.0170898 0.0152414 0.0271763 -0.0150154 0.0450065 -0.00127289 0.0284754 -0.0333515 0.0014938 -0.0100799 -0.0391799 -0.0367809 0.0243354 -0.0270965 0.0259199 0.0429975 0.0421306 0.012273 -0.0110993 -0.00969261 0.00877011
internal_weight=154790 102491 80096.6 22394.1 52299 38673.2 6177.26 41423.5 16216.9 27132 25800.1 18109.7 25470 20563.5 15623.4 4499.7 13779.1 2437.79 17268.8 25167 21332.1 16343.7 9254.85 991.67 2421.91 18129.7 22145.1 16932 15932 14890.3
internal_count=4015294 2564414 2364760 199654 1450880 1058739 48193 1306021 151461 824319 790093 518589 807418 540150 515928 33249 130632 20829 524512 626561 587668 471390 84961 7758 17532 482157 684938 521826 512227 467917
is_linear=0
shrinkage=0.05


Tree=7
num_leaves=31
num_cat=0
split_feature=9 10 34 10 52 52 52 10 12 9 10 25 52 1 1 40 52 12 12 52 12 52 46 13 10 13 9 20 52 52
split_gain=22130.8 6373.47 4035.96 3468.89 1889.61 1538.89 1478.24 1457.95 1180.68 1126.7 1032.36 584.281 454.647 435.794 417.35 356.53 360.502 340.677 333.427 305.434 304.58 302.521 270.584 265.006 255.583 252.723 227.328 226.178 210.436 201.219
threshold=0.0024129844969138507 0.0048502457793802032 0.13541666418313983 0.0021470906212925915 0.010160960257053377 1.0000000180025095e-35 -0.56244722008705128 0.0080063957720994967 0.0038129616295918827 1.0000000180025095e-35 0.0031125969253480439 -1.4539973735809324 0.053634986281394965 -0.011119194328784941 -0.01882047206163406 -0.011578226927667854 -1.3221158385276792 0.0060810931026935586 0.0060106520541012296 -0.62686306238174427 0.0037925336509943013 -0.51904305815696705 -0.0037271289620548482 1.0000000180025095e-35 0.0015276554622687402 3.9999998807907109 0.0087299440056085604 1.0000000180025095e-35 -0.84171432256698597 -1.0437559485435484
decision_type=2 2 2 2 2 2 2 2 2 2 2 2 2 2 2 2 2 2 2 2 2 2 2 2 2 2 2 2 2 2
left_child=3 5 6 21 8 10 27 11 22 19 28 -4 23 -11 -9 -12 -17 -13 29 -10 -18 -1 -5 -8 -23 -25 -16 -3 -2 -15
right_child=1 2 7 4 -6 -7 12 14 9 13 15 17 -14 18 26 16 20 -19 -20 -21 -22 24 -24 25 -26 -27 -28 -29 -30 -31
leaf_value=-0.022496244466893012 0.029062589287687696 -0.0082222625481451744 0.04034856942283005 0.039686449246917943 -0.046833359140808661 -0.044873396757736869 -0.019929936216124843 0.057577315717836669 -0.0065196716531468277 0.033204838131798441 0.026316847281681169 0.014793172113041989 -0.031613657762007447 0.043325323169104757 0.032967094299359866 0.052856107744105575 -0.0053451738043877144 0.026857549128175742 0.013188729535029461 -0.034335224471896929 0.0075096279875679281 -0.045611080246904488 -0.023346306580786819 0.014816430427619915 -0.034224054196317626 -0.027171641304856903 0.045114669264370556 0.037537198564880123 -0.013723001543250572 -0.0046204729194297403
leaf_weight=2463.8332650661469 296.40611790120602 315.96246335655451 4733.3013473767787 172.6058761253953 4002.6368330568075 1883.7320709750056 1754.1111551001668 3593.761620875448 1463.2388995587826 1112.750670330599 2115.6536997500807 11211.079946964979 2868.458683565259 223.30787871032953 8215.3442990109324 385.83460871875286 6248.0897534973919 12240.431251283735 3988.4413201566786 3031.7990990448743 17554.292169511318 12273.460032314062 12521.768254924566 1737.1635791230947 8233.5237649567425 451.51810819655657 7250.2967217117548 1858.0038202553988 9443.7854624949396 10912.958542367443
leaf_count=24062 2453 2766 125825 1378 42202 19527 15606 85516 12495 31164 61053 334173 28415 1655 216378 2763 191149 340451 106039 29467 507508 268023 412142 14372 292902 3966 182490 12788 310263 336303
internal_value=-0.000132026 0.0150216 0.0257054 -0.0237548 -0.0143678 -0.000817661 -0.00501105 0.0315473 -0.0104802 -0.00312718 0.00148478 0.0243244 -0.0164686 0.00300558 0.0422285 0.00663401 0.00491242 0.0210901 0.000783773 -0.0252806 0.00413526 -0.0390503 -0.0224892 -0.00545026 -0.0410392 0.00615442 0.0386619 0.0308866 -0.012421 -0.00365905
internal_weight=154558 94157.2 56229.4 60400.3 37429.5 37927.8 8985.22 47244.2 33426.9 20732.5 36044.1 28184.8 6811.25 16237.5 19059.4 26303.9 24188.2 23451.5 15124.7 4495.04 23802.4 22970.8 12694.4 3942.79 20507 2188.68 15465.6 2173.97 9740.19 11136.3
internal_count=4015294 2457462 1362746 1557832 972845 1094716 77913 1284833 930643 517123 1075189 800449 62359 475161 484384 762473 701420 674624 443997 41962 698657 584987 413520 33944 560925 18338 398868 15554 312716 337958
is_linear=0
shrinkage=0.05


Tree=8
num_leaves=31
num_cat=0
split_feature=10 13 12 10 52 42 52 10 52 12 52 12 20 22 22 52 52 52 52 22 12 16 52 22 16 20 52 15 42 52
split_gain=20182.5 8543.17 4948.59 2185.65 1682.97 1217.55 1128.53 988.17 920.165 768.649 651.325 551.08 428.625 378.576 355.423 321.009 316.893 305.786 290.954 282.044 251.184 250.129 243.92 219.957 212.966 189.77 184.999 183.456 160.193 153.938
threshold=0.0032153668580576782 1.0000000180025095e-35 0.0061899016145616778 0.0019985433900728826 -0.30258908867835993 0.0069502529222518214 1.0000000180025095e-35 0.0072800598572939643 0.010160960257053377 0.0041225915774703034 0.053634986281394965 0.0029889829456806187 1.0000000180025095e-35 -0.0085902982391417009 -0.029273009859025475 -1.086723208427429 -0.42897401750087732 -1.0618319511413572 0.31940279901027685 -0.011404648423194884 0.010657025035470726 0.81876853108406078 -1.3221158385276792 -0.015531586483120917 0.91315519809722911 1.0000000180025095e-35 0.25393319129943853 1.0622790455818178 0.0044400624465197333 -0.63979980349540699
decision_type=2 2 2 2 2 2 2 2 2 2 2 2 2 2 2 2 2 2 2 2 2 2 2 2 2 2 2 2 2 2
left_child=3 4 5 16 12 8 7 19 9 17 11 28 -2 -11 -9 -13 25 -3 -6 -4 -16 29 -14 -7 -17 -1 -18 -19 -5 -15
right_child=1 2 6 10 18 23 -8 14 -10 13 -12 15 22 21 20 24 26 27 -20 -21 -22 -23 -24 -25 -26 -27 -28 -29 -30 -31
leaf_value=-0.026612560257225405 -0.020063431086311617 0.051454306794797226 0.036600657608450174 -0.028708299347383111 -0.030318299491154346 0.042236620381946151 -0.018207485119049484 0.05632182074871811 -0.03698856903210946 0.021698797341290006 -0.048184230556922475 0.028686249011723997 0.033572103276479769 0.04492008660350634 0.032016775877158406 -0.014772055411919428 -0.039087061120675955 -0.0095679694273317142 -0.048841064357059344 0.019985230172482084 0.04346809783497415 0.014577770822504887 0.0021523883314262882 0.021172298276949282 -0.0013266800861856081 0.023222714743768677 -0.052735640526921201 0.0028955627563217396 -0.0054668321750091786 0.0026496094425337295
leaf_weight=2392.0291519165039 1541.2721028253436 239.26252832263708 3088.5810754913837 7365.3446639589965 6043.5312183536589 1564.3563763406128 1166.3961664140224 2508.6233330965042 1342.9934775307775 5438.6882976274937 1633.9445703327656 502.88253430277109 937.99076231569052 218.58798729628325 12586.979982938617 13501.937312273309 15432.970209637657 9199.2718649618328 3265.6951678842306 14758.533551517874 7729.391279688105 7276.8452051896602 1809.0268191322684 5964.6680319551378 3766.7568610366434 207.60546313226223 2958.7452048882842 4347.9666939619929 824.39049820043147 14689.286281634122
leaf_count=23790 14139 1621 76828 267681 58272 38568 11640 52528 14122 141696 17777 4054 6625 1511 312571 423679 475513 296184 35439 406326 183658 207102 14002 166976 127256 2044 32487 133312 29181 438712
internal_value=-0.000140291 0.0121186 0.0175794 -0.0268141 -0.0248772 0.00700846 0.0302837 0.0316744 0.00374338 0.00506438 -0.0175648 -0.0156377 0.00104024 0.00987688 0.0385659 -0.0106925 -0.0389731 -0.00457821 -0.0368161 0.0228607 0.0363734 0.00697868 0.0128809 0.025549 -0.0118393 -0.0226327 -0.0412828 -0.00556782 -0.0263688 0.0032694
internal_weight=154305 105718 92120.4 48586.6 13597.5 50281.9 41838.5 40672.1 42752.9 41409.9 27595.3 25961.3 4288.29 27623.4 22825 17771.6 20991.4 13786.5 9309.23 17847.1 20316.4 22184.7 2747.02 7529.02 17268.7 2599.63 18391.7 13547.2 8189.74 14907.9
internal_count=4015294 2611832 2483355 1403462 128477 1439804 1043551 1031911 1234260 1220138 869628 851851 34766 789021 548757 554989 533834 431117 93711 483154 496229 647325 20627 205544 550935 25834 508000 429496 296862 440223
is_linear=0
shrinkage=0.05


Tree=9
num_leaves=31
num_cat=0
split_feature=9 10 52 10 52 52 12 11 44 42 13 20 22 22 52 11 9 52 1 52 15 42 12 25 10 12 20 52 24 11
split_gain=18604.8 5777.28 3282.58 2549.4 1486.53 1402.95 1389.4 1097.15 827.553 624.721 498.368 457.97 421.107 378.762 370.699 353.415 323.982 294.21 289.168 269.176 265.653 252.563 244.096 233.808 223.579 215.006 187.429 198.117 179.207 178.827
threshold=0.0021632621064782147 0.0048502457793802032 1.0000000180025095e-35 0.0021470906212925915 0.010160960257053377 1.0000000180025095e-35 0.0069157783873379239 0.0032475306652486329 0.003145383321680129 0.0095499013550579565 1.0000000180025095e-35 1.0000000180025095e-35 -0.014588912483304737 -0.012000546324998139 -0.82184672355651844 0.0039751585572958001 1.0000000180025095e-35 -0.51904305815696705 -0.0040016786660999051 -1.3000364303588865 0.78908327221870433 0.0063148578628897676 0.010657025035470726 -1.0625092983245847 0.0015276554622687402 0.0047348120715469131 1.0000000180025095e-35 -0.82184672355651844 -0.082074265927076326 0.0026035944465547804
decision_type=2 2 2 2 2 2 2 2 2 2 2 2 2 2 2 2 2 2 2 2 2 2 2 2 2 2 2 2 2 2
left_child=3 5 6 17 8 7 9 19 18 11 -8 -3 -12 -9 -15 -10 -17 -1 -5 -2 25 29 -14 -13 -19 -16 -20 -28 -4 -21
right_child=1 2 28 4 -6 -7 10 13 15 -11 12 23 22 14 20 16 -18 24 26 21 -22 -23 -24 -25 -26 -27 27 -29 -30 -31
leaf_value=-0.021297273456614817 0.043622898185182023 -0.029376946032204206 0.043280397759401706 -0.0036945427337989924 -0.045844889957651923 -0.043574597602399429 0.00020882194964587459 0.022599038788215606 -0.014630752571987472 0.035982886367581249 0.044953845178620278 0.023706102889521723 0.026776937160051164 0.039903612416080869 -0.0069137634638798563 -0.016079895454542175 0.0076021019177367703 -0.044433168463324096 -0.036139512052073157 -0.025475345436598164 0.0090901325624599023 0.01052038205116519 0.037894202259033484 0.011854812267745343 -0.033151026994138556 0.0043484411100312486 0.018173211231724769 -0.021274577573908229 -0.03137497073895841 -0.011508192571305002
leaf_weight=2352.3231508955359 202.87486091256142 601.71925782039762 82.727640099823475 2342.7005879729986 3554.5286909416318 1912.1092934161425 1149.110449988395 2822.0233860332519 4141.7200159244239 3636.5297449342906 6525.2792088314891 5558.4886341206729 14734.04918872565 676.46470060944557 8557.2730404064059 1795.7307893261313 7377.2006046194583 11354.170404694974 2185.7378346025944 3733.2388529479504 9550.8713472560048 919.54884016700089 7425.9636314921081 16560.9033963494 7160.6473888494074 8395.6326905917376 329.17086439579725 9623.8998482543975 2838.016511015594 5934.9096753951162
leaf_count=23784 1515 5660 821 76178 40299 21221 9672 72374 126650 90997 142851 130376 373266 4865 266454 16448 213778 265477 22354 131974 292038 29449 175181 437961 267510 240611 2584 306818 29506 196622
internal_value=-0.000147281 0.012297 0.0224202 -0.0244119 -0.0153986 -0.0017157 0.0251064 0.000246377 -0.0115051 0.0167417 0.0324964 0.0136622 0.0337898 0.00516401 0.0033538 -0.00250772 0.00296602 -0.0379536 -0.0197776 -0.0134267 0.00242092 -0.0145198 0.0305024 0.014833 -0.0400698 -0.00133635 -0.0228815 -0.0199699 -0.0292604 -0.0169014
internal_weight=154036 101818 59112.8 52217.8 31350.7 42704.9 56192 40792.8 27796.2 26357.6 29834.4 22721.1 28685.3 30002.3 27180.2 13314.7 9172.93 20867.1 14481.5 10790.6 26503.8 10587.7 22160 22119.4 18514.8 16952.9 12138.8 9953.07 2920.74 9668.15
internal_count=4015294 2653414 1396291 1361880 805109 1257123 1365964 1235902 764810 664994 700970 573997 691298 876342 803968 356876 230226 556771 407934 359560 799103 358045 548447 568337 532987 507065 331756 309402 30327 328596
is_linear=0
shrinkage=0.05


Tree=10
num_leaves=31
num_cat=0
split_feature=9 11 52 10 52 43 52 11 12 20 9 12 15 52 12 42 52 15 52 52 11 12 16 42 42 45 24 52 1 44
split_gain=16979.4 5181.91 2993.38 2453.54 1425.94 1249.26 1212.63 903.328 799.232 777.966 762.012 664.328 509.638 412.299 375.554 321.312 312.395 296.773 289.511 225.01 226.104 217.438 216.321 178.757 172.162 171.016 166.08 164.727 164.764 159.727
threshold=0.0021632621064782147 0.0049088194500654945 1.0000000180025095e-35 0.0021470906212925915 0.010160960257053377 0.0063696491997689017 1.0000000180025095e-35 0.002985773491673172 0.0034863571636378769 1.0000000180025095e-35 0.00036121557059232151 0.0069643191527575263 1.0622790455818178 -0.87657392024993885 0.0053648259490728387 0.014170818496495487 -0.62686306238174427 0.76796436309814464 -0.96834552288055409 0.25393319129943853 0.001981812529265881 0.0037300883559510116 0.45122760534286505 0.0063148578628897676 0.0086416755802929419 -0.00015479794092243535 -0.082074265927076326 -0.93425652384757985 -0.0078881038352847082 0.010316831991076471
decision_type=2 2 2 2 2 2 2 2 2 2 2 2 2 2 2 2 2 2 2 2 2 2 2 2 2 2 2 2 2 2
left_child=3 6 5 18 8 9 7 23 -5 -3 16 17 13 -9 27 29 -10 -11 -1 20 -20 -15 -13 25 -14 -2 -4 -12 -29 -7
right_child=1 2 26 4 -6 15 -8 12 10 11 14 22 24 21 -16 -17 -18 -19 19 -21 -22 -23 -24 -25 -26 -27 -28 28 -30 -31
leaf_value=-0.016141296108497682 0.022384049441853321 -0.02722724022027493 0.039264337397894804 -0.024415181516306284 -0.045240254373319314 0.026392125547905279 -0.043016702481153794 0.035768151110562689 -0.0045449929132770862 0.0082275017088086679 0.039415288898780848 0.019332008671359528 0.0096065130492314979 -0.011053499183320468 0.010945081457777317 0.044834207933732294 -0.03147835651874039 0.020568072479580878 -0.043636458214953738 -0.052122182360122615 -0.031582652644315722 0.00059819829297944743 0.030478075074532398 0.0096268047111881683 0.027972340972767375 -0.019852573657543952 -0.030866264876212204 0.012985963602020712 -0.008980602745122624 0.03746997177526025
leaf_weight=1510.4751513600349 248.50395881384611 935.81433935463428 87.000029638409615 7941.2922713924199 3425.2238161191344 10881.704245591536 1767.8273372352123 718.90344110131264 1597.7051508724689 13072.169428845868 197.30502085387707 7348.2479180395603 8750.1391147971153 5647.1335343420506 5158.471952708438 4534.2996487431228 3301.0537780299783 7766.2517915852368 6689.3853315636516 2744.8003952652216 9298.0730213820934 13761.287405412644 10679.666166549549 621.80941292829812 1493.8674335852265 6735.5279040820897 2845.8829445913434 950.12673123925924 8406.3509491998702 4642.0140931718051
leaf_count=15532 2072 8868 837 272827 40299 267512 20215 5103 13858 340751 1423 171265 253997 180397 139431 101689 36626 203842 231262 32472 277505 403994 258955 19510 40367 238998 30496 28870 271775 104546
internal_value=-0.000152408 0.0115909 0.0205334 -0.0236614 -0.0148152 0.0229498 -0.00253729 -0.000652983 -0.0110328 0.0178222 -0.0056138 0.0189069 0.003206 -0.00141473 7.34723e-05 0.0331249 -0.0226942 0.0128267 -0.0371988 -0.0388967 -0.0366261 -0.00279202 0.0259349 -0.0160625 0.0122848 -0.0183497 -0.0287859 -0.00579655 -0.00674995 0.0297047
internal_weight=153758 102538 62793.1 51220.3 30977.5 59860.2 39745 37977.2 27552.3 39802.1 19611 38866.3 30371.3 20127.3 14712.3 20058 4898.76 20838.4 20242.7 18732.3 15987.5 19408.4 18027.9 7605.84 10244 6984.03 2932.88 9553.78 9356.48 15523.7
internal_count=4015294 2653414 1488761 1361880 805109 1457428 1164653 1144438 764810 983681 491983 974813 883858 589494 441499 473747 50484 544593 556771 541239 508767 584391 430220 260580 294364 241070 31333 302068 300645 372058
is_linear=0
shrinkage=0.05


Tree=11
num_leaves=31
num_cat=0
split_feature=10 13 11 10 52 52 12 52 22 52 12 12 22 20 52 52 43 52 52 5 45 43 13 0 52 52 22 20 13 20
split_gain=15645.5 6500.49 3581.09 1761.16 1501.99 933.981 769.942 754.874 707.167 528.223 481.558 434.415 412.771 364.199 319.127 302.746 287.902 286.888 256.613 249.453 238.491 224.893 219.583 201.734 197.663 191.818 178.594 177.056 175.041 169.918
threshold=0.003133078222163022 1.0000000180025095e-35 0.0056699393317103395 0.0019985433900728826 -0.30258908867835993 0.010160960257053377 0.0086580016650259512 0.010160960257053377 -0.0098472833633422834 0.053634986281394965 0.0036293541779741649 0.0029889829456806187 -0.0096162417903542501 12.21970844268799 -0.80717232823371876 -0.42897401750087732 0.0044504520483315 0.38579386472702032 -1.086723208427429 -0.0056630130857229224 -0.002965160994790494 0.0056315558031201371 3.9999998807907109 -0.0049138623289763919 -1.3221158385276792 0.25393319129943853 0.0099256648682057875 1.0000000180025095e-35 3.9999998807907109 1.0000000180025095e-35
decision_type=2 2 2 2 2 2 2 2 2 2 2 2 2 2 2 2 2 2 2 2 2 2 2 2 2 2 2 2 2 2
left_child=3 4 7 15 13 6 12 8 22 11 20 -5 28 -2 -12 27 -16 -6 -13 -8 -10 -14 23 -3 -15 -17 -22 -1 -4 -20
right_child=1 2 5 9 17 -7 19 -9 10 -11 14 18 21 24 16 25 -18 -19 29 -21 26 -23 -24 -25 -26 -27 -28 -29 -30 -31
leaf_value=-0.024463127180344425 -0.016668818869311323 0.03120460900218977 0.030884166024121369 -0.024739111204486002 -0.028693813356075865 -0.01757299877141718 0.046841293486571685 -0.035214430321603547 0.045452328896058096 -0.046864695552167414 0.047968468158252127 0.026133462023767862 0.012738052590796065 0.031917262937502064 0.0017194876873783188 -0.036873033544861558 0.012790122713222433 -0.048046289197543557 -0.032376870663448361 0.030258557161897411 -0.012998485601167254 0.02341096312117065 -0.029035698878724894 0.014114500736590844 0.002925881776238896 -0.051593242399122365 0.0093450940744067169 0.023978881226681785 -0.018308674027222409 -0.0099089749320821954
leaf_weight=2262.0151183530688 1744.1930141672492 2890.0044043511152 7505.6745981574059 7458.8978454638273 6020.8598410580307 1340.7857881784439 2625.1665291450918 1176.9025290682912 199.41681654006243 1358.953560218215 435.15265657752752 474.02953700721264 14931.010829029605 893.17083191871643 20897.203986074775 14095.893105003983 8168.2505031283945 2808.2643110603094 893.61145531944931 16662.043496321887 6538.4626298304647 7372.9878209494054 226.23803658410907 4289.9608438480645 1720.372237175703 2625.2863462269306 1036.0517977811396 205.78871465474367 185.29641303233802 14429.873207449913
leaf_count=23790 16148 71726 175225 285674 61519 14275 53109 13608 1395 16476 2847 3735 394949 6059 625826 475513 237622 33908 9429 387124 221853 185980 2047 119983 13229 32487 33167 2044 1610 492937
internal_value=-0.00015656 0.00993296 0.0144334 -0.0254164 -0.0229941 0.0236017 0.0247219 0.00431235 0.00535349 -0.0165646 0.00254959 -0.014794 0.0197105 0.0010252 0.00546697 -0.0367715 0.00483066 -0.0348492 -0.0100984 0.0325156 -0.00852132 0.0162662 0.0194652 0.0209934 0.0128336 -0.0391842 -0.0099423 -0.0204236 0.029699 -0.0112192
internal_weight=153472 109667 96480.6 43804.3 13186.9 50623 49282.2 45857.6 44680.7 24615.4 37274.5 23256.4 29995 4357.74 29500.6 19189 29065.5 8829.12 15797.5 19287.2 7773.93 22304 7406.2 7179.97 2613.54 16721.2 7574.51 2467.8 7690.97 15323.5
internal_count=4015294 2673209 2542346 1342085 130863 1212272 1197997 1330074 1316466 808251 1122710 791775 757764 35436 866295 533834 863448 95427 506101 440233 256415 580929 193756 191709 19288 508000 255020 25834 176835 502366
is_linear=0
shrinkage=0.05


Tree=12
num_leaves=31
num_cat=0
split_feature=10 13 12 10 52 42 52 10 52 12 52 12 20 16 52 52 4 52 13 22 0 52 16 13 45 22 52 5 42 52
split_gain=14323 5875.87 3234.05 1656.87 1429.75 846.627 689.015 665.875 650.827 541.675 520.394 501.926 327.908 317.002 299.683 297.385 277.105 247.485 214.423 208.693 192.697 188.441 177.828 166.647 166.373 159.663 159.586 158.419 156.002 141.09
threshold=0.0031125969253480439 1.0000000180025095e-35 0.0060106520541012296 0.0018393913051113488 -0.36471304297447199 0.0068495727609843024 0.010160960257053377 0.0072800598572939643 0.010160960257053377 0.0037925336509943013 0.044920435175299651 0.0029889829456806187 12.21970844268799 0.85891431570053112 0.31940279901027685 -0.35166387259960169 -0.10168941318988799 -0.82184672355651844 3.9999998807907109 -0.0089909830130636675 -0.010666786693036555 -0.9532836079597472 0.65910822153091442 3.9999998807907109 -0.0023041713284328576 -0.0078637888655066473 -1.5449287295341489 -0.0048673711717128745 0.0039966502226889142 0.26602914929389959
decision_type=2 2 2 2 2 2 2 2 2 2 2 2 2 2 2 2 2 2 2 2 2 2 2 2 2 2 2 2 2 2
left_child=3 4 5 15 12 8 7 19 9 21 11 28 -2 24 -6 -1 -9 -13 20 -4 -18 -3 -19 -15 -11 -26 -14 -7 -5 -17
right_child=1 2 6 10 14 27 -8 16 -10 13 -12 17 26 23 -16 29 18 22 -20 -21 -22 -23 -24 -25 25 -27 -28 -29 -30 -31
leaf_value=-0.021357847381619648 -0.015496616467217379 0.038882288164087307 0.026472345060746312 -0.027689873764228302 -0.027242168244666621 0.038989296165461339 -0.015258235088328468 0.042208582314219707 -0.034804402585940274 0.026191262458627809 -0.046412913487832858 0.018699959239534512 0.033723305941558847 0.013988636782815611 -0.046870297682603257 -0.037959258087966415 0.039412613509874531 -0.015292664904819481 -0.016148537789935091 0.014559327190483098 0.025835705113603787 -0.0079822737341335281 -0.003901649834550595 -0.027140224854576584 0.012063876187148236 -0.00027892626835682215 0.0054788702909834251 0.017288273934452755 -0.0069329291977895799 -0.051346275357980954
leaf_weight=2447.5808657929301 1650.3256369829178 219.18957667052746 4760.7441109176725 7527.3213611617684 5935.0582979507744 961.45558376051486 1153.2643727511168 3590.8965268023312 1170.1024628058076 717.80294625461102 1430.1892753317952 707.1393241584301 687.0058124884963 10849.620234606788 2892.3620779961348 11394.634386237711 3050.4320158101618 10416.445681188256 281.45478921756148 16137.890489103273 18243.645457036793 10024.228932593018 5105.5690591242164 252.00849002413452 3115.1700539141893 16486.554108709097 1838.3878525123 6711.6143089551479 1028.9314813315868 2379.1497654467821
leaf_count=26264 15407 1406 113294 300995 61532 21574 12473 75284 13887 5124 17914 5849 4571 298541 36243 384587 63380 339569 2585 427577 421138 333232 181921 2276 87063 498385 13726 179719 38950 30828
internal_value=-0.00015995 0.00930562 0.013507 -0.0248581 -0.0222703 0.00471244 0.0229143 0.0238699 0.00197261 0.00300545 -0.0170866 -0.0153944 0.00183584 0.00626057 -0.0336735 -0.0374178 0.029348 -0.010228 0.0272076 0.0172731 0.0277806 -0.00697946 -0.0115459 0.013055 0.00254842 0.00168263 0.0131625 0.0200075 -0.0251937 -0.0402716
internal_weight=153166 110729 97726.1 42437 13003.1 50507.7 47218.3 46065.1 42834.7 41664.6 26215.6 24785.4 4175.72 31421.2 8827.42 16221.4 25166.4 16229.2 21575.5 20898.6 21294.1 10243.4 15522 11101.6 20319.5 19601.7 2525.39 7673.07 8556.25 13773.8
internal_count=4015294 2688417 2556938 1326877 131479 1441207 1115731 1103258 1239914 1226027 885198 867284 33704 891389 97775 441679 562387 527339 487103 540871 484518 334638 521490 300817 590572 585448 18297 201293 339945 415415
is_linear=0
shrinkage=0.05


Tree=13
num_leaves=31
num_cat=0
split_feature=9 10 52 10 52 12 52 10 12 9 42 20 40 52 20 52 14 52 15 12 12 52 11 12 3 16 44 12 52 21
split_gain=13209.4 4322.21 2404.14 1682.73 1094.61 1089.06 835.398 750.845 534.107 590.37 504.021 378.564 322.274 319.302 289.615 286.036 251.948 236.197 233.472 217.363 186.7 177.747 172.361 169.62 167.154 155.231 153.734 147.248 146.228 135.855
threshold=0.0019187570433132353 0.0043505700305104264 1.0000000180025095e-35 0.0020998428808525209 0.010160960257053377 0.0068670043256133803 1.0000000180025095e-35 0.002783829928375781 0.0040410989895462998 1.0000000180025095e-35 0.0086416755802929419 1.0000000180025095e-35 -0.017599924467504021 -0.80717232823371876 1.0000000180025095e-35 -0.42897401750087732 1.0695637464523318 -0.62686306238174427 0.85876509547233593 0.013527679722756149 0.0033609938109293584 0.26602914929389959 0.001981812529265881 0.0028442334150895481 -0.056018820032477372 0.62963327765464794 0.0045220237225294122 0.0047115187626332053 -0.72898140549659718 20.202893257141117
decision_type=2 2 2 2 2 2 2 2 2 2 2 2 2 2 2 2 2 2 2 2 2 2 2 2 2 2 2 2 2 2
left_child=3 6 5 15 8 10 7 28 23 17 11 -3 -7 -9 -14 29 20 -10 27 25 -15 22 -17 -5 -4 -16 -11 -13 -2 -1
right_child=1 2 24 4 -6 12 -8 13 9 26 -12 18 14 16 19 21 -18 -19 -20 -21 -22 -23 -24 -25 -26 -27 -28 -29 -30 -31
leaf_value=-0.026557643536800409 0.018899286460038498 -0.027935050839841487 0.0081908984733149639 -0.030229148487909963 -0.044062992653332633 0.037518248340750363 -0.04161160756316909 0.032459484578592816 -0.0045183339952090873 -0.0024483556016530201 0.026117445068196472 -0.00044939718365507122 -0.018630012374560283 -0.013763635731980063 0.017531033949967956 -0.042651590640736994 0.0070094071901071857 -0.030320514851844095 0.015932469528588192 0.033278552634059419 -0.00075894361569468056 -0.051053870843533494 -0.030833571833228626 -0.01613915601785202 -0.031151506954614994 0.025477668416706997 0.011720227956720597 0.0096058144968550734 -0.016352551549862256 0.0012371558053737321
leaf_weight=1730.4606876000762 303.90794489532709 662.75323999859393 299.47483961284161 3124.94023918733 2986.2998981773853 4198.32418320328 1465.5875544399023 788.77279049903154 1361.5228664427996 6111.4240008592606 5338.3793178554624 5104.2711880244315 417.573406457901 3435.5452986750752 12492.446990057826 5494.7036808207631 8925.5316771455109 2544.6507216077298 11218.15575664863 4603.367373123765 14032.014092264697 2330.435070566833 7035.8170035611838 6749.1984016168863 2741.4092729464173 12095.616835851222 2787.8603724688292 12699.356919202954 9186.0037379804999 589.36130179464817
leaf_count=18895 2543 6547 3202 116769 39063 86564 18683 5398 11891 177770 127895 137967 4079 119678 285196 213886 270851 28150 288493 96894 422838 31372 230045 216658 31892 278574 74611 318013 344585 6292
internal_value=-0.000162291 0.00901082 0.0162303 -0.0237142 -0.0156071 0.0181525 -0.00459459 -0.00311521 -0.0118603 -0.00512247 0.0119732 0.00942958 0.0245539 0.00111217 0.0227156 -0.0358251 0.000175333 -0.021327 0.0102829 0.0233071 -0.00331673 -0.038374 -0.0360158 -0.0205983 -0.027277 0.0214402 0.00199021 0.006723 -0.0152236 -0.0194962
internal_weight=152855 110008 71871.1 42846.7 25665.9 68830.2 38137.4 36671.8 22679.6 12805.5 35022.9 29684.5 33807.3 27181.9 29609 17180.8 26393.1 3906.17 29021.8 29191.4 17467.6 14861 12530.5 9874.14 3040.88 24588.1 8899.28 17803.6 9489.91 2319.82
internal_count=4015294 2849892 1665316 1165402 664912 1630222 1184576 1165893 625849 292422 878915 751020 751307 818765 664743 500490 813367 40041 744473 660664 542516 475303 443931 333427 35094 563770 252381 455980 347128 25187
is_linear=0
shrinkage=0.05


Tree=14
num_leaves=31
num_cat=0
split_feature=9 12 52 10 52 52 10 43 20 12 20 0 22 40 52 1 52 12 12 16 13 0 50 22 52 31 12 52 44 46
split_gain=12085.6 3861.8 1815.65 1622.55 1125.12 1057.4 927.265 738.49 623.134 571.708 542.314 533.981 419.282 344.477 275.089 253.957 251.272 237.267 226.653 194.984 187.379 183.62 179.382 289.196 166.556 158.275 209.698 155.959 150.229 149.151
threshold=0.0019187570433132353 0.0052299364469945439 0.053634986281394965 0.0019985433900728826 1.0000000180025095e-35 0.053634986281394965 0.0028449535602703695 0.0067903627641499051 1.0000000180025095e-35 0.0033396007493138318 1.0000000180025095e-35 -0.004043848253786563 -0.011404648423194884 0.013174666091799738 -0.42897401750087732 -0.0078881038352847082 -0.9532836079597472 0.0084699997678399103 0.0035473719472065572 0.75742515921592724 3.9999998807907109 -0.013475191313773392 0.87500000000000011 -0.013356754090636967 -1.086723208427429 0.45290082693099981 0.0047348120715469131 0.26602914929389959 0.01576584950089455 0.0022256649099290375
decision_type=2 2 2 2 2 2 2 2 2 2 2 2 2 2 2 2 2 2 2 2 2 2 2 2 2 2 2 2 2 2
left_child=3 4 7 14 6 9 24 8 -3 -5 -11 20 -10 18 -1 -12 -17 29 -13 -20 22 -9 23 -8 -2 26 -18 -16 -4 -14
right_child=1 2 28 5 -6 -7 11 21 12 10 15 13 17 -15 27 16 25 -19 19 -21 -22 -23 -24 -25 -26 -27 -28 -29 -30 -31
leaf_value=-0.019463604489201172 0.033507695646923151 -0.025332613138836176 -0.027958817938472571 -0.024902668445712605 -0.040779622951289299 -0.044146370136242438 0.030949001622822297 0.039472677775432938 0.02580109987346741 -0.026601462905067354 0.016960199978031727 -0.010037381888317312 0.011398792299380699 0.018248874395474554 -0.036056852903467329 0.02164564968801418 -0.010816888187697967 0.020033696157925576 -0.0031730832072226533 0.0069827150762210959 -0.024284537502621526 0.024792850095774248 0.037275881033874018 0.0069838373416714755 -0.015645184791430147 -0.018213240190361784 0.0041470471646789702 -0.050690921476339759 0.039292776455700104 -0.0081205039511276205
leaf_weight=2231.4803565740585 175.63350561261177 948.85531533695757 2361.3951776847243 6228.3274683393538 1822.3590486347675 2853.9646445140243 1710.5033885389566 2466.5865480229259 8167.4025977980345 2988.25968218036 1410.8320997413248 6408.5186832863837 23235.302183430642 2317.4424405321479 11275.824391348287 805.84279056638479 5306.9925460033119 9128.0815363209695 12157.313730757684 7732.0594563353807 297.33977598510683 15619.099929727614 887.94798210635781 4767.4116506762803 9208.621564315632 2564.8677195012569 4189.4283092413098 2171.1915711835027 86.066629506647587 1021.7115318104625
leaf_count=24650 1374 9466 28087 233384 23495 38761 43971 49661 172068 32747 40582 209403 617899 64523 406490 5893 195706 206758 340474 221053 2868 346193 5998 145119 352331 24846 131755 30588 914 8237
internal_value=-0.000163559 0.00851499 0.0166271 -0.0229858 -0.00225352 -0.0154074 -0.000715976 0.0183327 0.0147317 -0.0119163 -0.00723187 0.00290784 0.0156466 -0.000231325 -0.0357217 -0.00317797 -0.00538605 0.0131624 -0.00185985 0.000775017 0.0146298 0.0267949 0.0162007 0.0133119 -0.0147253 -0.0071921 -0.00421542 -0.0384197 -0.0255939 0.0105766
internal_weight=152547 110520 63034.5 42027 47485.2 26348.5 45662.8 60587 42501.4 23494.6 17266.2 36278.5 41552.5 28615.3 15678.5 14278 12867.1 33385.1 26297.9 19889.4 7663.2 18085.7 7365.86 6477.92 9384.26 12061.3 9496.42 13447 2447.46 24257
internal_count=4015294 2849892 1439283 1165402 1410609 703674 1387114 1410282 1014428 664913 431529 1033409 1004962 835453 461728 398782 358200 832894 770930 561527 197956 395854 195088 189090 353705 352307 327461 437078 29001 626136
is_linear=0
shrinkage=0.05


Tree=15
num_leaves=31
num_cat=0
split_feature=10 13 12 52 10 10 0 52 22 13 52 12 52 12 52 22 52 20 13 23 52 24 22 12 52 39 52 52 52 16
split_gain=11101.1 4561.66 2609.34 1321.94 1178.39 661.926 648.088 428.504 435.512 374.655 362.111 356.065 350.098 341.185 283.042 279.558 278.953 273.178 245.471 215.576 192.743 177.5 176.404 171.269 168.616 165.622 162.58 149.906 143.989 141.612
threshold=0.0029267934150993828 1.0000000180025095e-35 0.0054772349540144214 -0.30258908867835993 0.0018393913051113488 0.0071462646592408427 -0.0039590967353433362 0.053634986281394965 0.012418940663337709 3.9200642108917241 0.044920435175299651 0.0037925336509943013 0.010160960257053377 0.0027724549872800712 -0.35166387259960169 -0.035603322088718407 0.38579386472702032 1.0000000180025095e-35 3.9999998807907109 -0.024404930882155892 -0.72898140549659718 -0.033398386090993874 -0.0078637888655066473 0.010657025035470726 0.053634986281394965 -0.0016154321492649613 -1.5449287295341489 -1.1703969240188596 0.26602914929389959 0.91315519809722911
decision_type=2 2 2 2 2 2 2 2 2 2 2 2 2 2 2 2 2 2 2 2 2 2 2 2 2 2 2 2 2 2
left_child=4 3 6 17 14 12 18 8 11 15 13 27 19 -6 -1 -7 -5 -2 21 -4 -15 -3 -13 24 -17 -23 -19 -8 -16 -22
right_child=1 2 5 16 10 9 7 -9 -10 -11 -12 22 -14 20 28 23 -18 26 -20 -21 29 25 -24 -25 -26 -27 -28 -29 -30 -31
leaf_value=-0.019308816789356791 -0.016051879110937705 0.031588086853138783 0.025471454678097388 -0.026402805018038246 -0.025659652586138816 0.041912625192755654 0.057628809355853322 -0.036065030021321297 0.015643912717330729 -0.014887548342354021 -0.045100154941984383 0.010996331659617579 -0.026022040316161534 0.014935529799339559 -0.03588025197892443 0.020400753431009971 -0.046227858285298379 0.029073747162620258 -0.025553121728741607 0.011650795856653025 -0.015208420235466216 0.009263340696410877 -0.00075243360271231696 0.02806581506922138 -0.01336471900829786 0.030775327727654834 0.0028254774125756939 -0.010565501089437912 -0.050251142186310022 -0.0028165041856308484
leaf_weight=2331.623907469213 1530.3496483117342 1415.1923142094165 3182.5323571879417 5873.4625358562917 5710.9400246292353 2012.0290356352925 81.242261856794357 859.00961392372847 3809.8746087085456 635.05657185427845 1078.3507901355624 3903.9458543192595 580.15966913849115 673.06926345080137 10427.523156853393 17106.948356401175 2542.4216738641262 808.52382894605398 382.51596854627132 24873.01843437925 10482.152072686702 6401.7778215371072 17592.203982548788 9311.0567831937224 377.90394733846188 1040.1103482414037 2182.1064396798611 9981.3137171640992 2092.8446311280131 2955.5336341205984
leaf_count=26264 15247 33527 74342 64550 242951 36921 521 11354 107925 6439 15007 105297 7002 5718 384587 386328 35463 5287 3871 647396 372147 181214 527193 194097 4295 14450 16531 348749 30828 109793
internal_value=-0.00016433 0.00731591 0.0108133 -0.0206773 -0.0245355 0.0178361 0.0018426 -0.0011721 -0.000324645 0.0231003 -0.0168834 -0.00225242 0.0124236 -0.0153483 -0.0353037 0.0239377 -0.0323919 0.00112969 0.013663 0.0132186 -0.0111751 0.0153566 0.00138128 0.022588 0.019671 0.0122699 0.00992176 -0.0100149 -0.0382824 -0.0124829
internal_weight=152235 116483 103546 12936.9 35752 58078.7 45467.2 36227.6 35368.6 29443 20900 31558.7 28635.7 19821.7 14852 28807.9 8415.88 4520.98 9239.6 28055.6 14110.8 8857.08 21496.1 26795.9 17484.9 7441.89 2990.63 10062.6 12520.4 13437.7
internal_count=4015294 2827999 2690921 137078 1187295 1356820 1334101 1101039 1089685 628080 745616 981760 728740 730609 441679 621641 100013 37065 233062 721738 487658 229191 632490 584720 390623 195664 21818 349270 415415 481940
is_linear=0
shrinkage=0.05


Tree=16
num_leaves=31
num_cat=0
split_feature=9 10 52 10 52 12 52 11 12 20 42 20 52 22 52 23 5 52 25 46 22 12 45 15 12 24 24 52 20 33
split_gain=10245.1 3225.29 1774.49 1429.04 952.753 777.362 704.232 643.619 523.043 466.291 442.861 388.673 326.775 275.868 268.148 223.768 218.958 215.652 210.738 210.255 213.484 191.127 202.32 179.261 163.899 157.767 151.005 145.121 138.619 135.051
threshold=0.0018800548277795317 0.0043505700305104264 0.053634986281394965 0.0019460690091364088 0.053634986281394965 0.0077508692629635343 1.0000000180025095e-35 0.0026746372459456329 0.003275898285210133 1.0000000180025095e-35 0.0086416755802929419 1.0000000180025095e-35 -0.68659135699272145 -0.0098472833633422834 -0.42897401750087732 -0.08324646949768065 -0.0019235929357819257 -0.89652597904205311 -1.0299249291419981 0.0024057895643636589 0.0096983853727579134 0.0046433177776634702 -0.0021744085242971774 0.0012658577179536226 0.0048024379648268231 -0.035845005884766572 -0.046597585082054131 0.25393319129943853 27.899558067321781 0.59375000000000011
decision_type=2 2 2 2 2 2 2 2 2 2 2 2 2 2 2 2 2 2 2 2 2 2 2 2 2 2 2 2 2 2
left_child=3 6 5 14 8 10 7 -2 -5 -10 11 -3 28 -14 -1 -7 -11 -18 25 20 21 22 -15 -17 -20 -13 -4 -16 -9 -19
right_child=1 2 26 4 -6 15 -8 12 9 16 -12 18 13 19 27 23 17 29 24 -21 -22 -23 -24 -25 -26 -27 -28 -29 -30 -31
leaf_value=-0.01837589577856925 -0.018732485605803095 -0.026759163597508802 0.0080141840643706049 -0.024618577759702179 -0.043203837714428428 0.047310689097620255 -0.039694761773261561 0.0028054892266482262 -0.025325312037420458 0.014992096681566631 0.022479204355548624 0.026105708735345352 0.012276053097651703 0.036357225629518423 -0.035165044694655395 -0.00012907258899520616 0.018252958198607457 -0.017778451548571144 0.00090050385339414092 -0.027042509623819044 0.010990009729126879 0.0024447604800450756 -0.0077371528267800738 0.021819989004159816 0.0097240974666288824 0.011859098779755691 -0.030058818369463027 -0.049959530249186618 0.040465552627884115 -0.004585785265993912
leaf_weight=2135.6326821669936 5471.2168130539358 750.43388807401061 291.74507146328688 5774.5069449301809 2665.2959529384971 834.76937630772591 1347.6283206567168 379.43144807964563 2939.2620121110231 1446.8879644777626 7121.4963287599385 2753.9855170343071 3419.0347829144448 264.8289182856679 10083.585030894727 965.54186173900962 885.78356178104877 2449.0353542417288 7224.0974632389843 865.52118298411369 2824.3955249711871 8461.7122268788517 14702.549124322832 25442.748840436339 19385.843569105491 6601.2615132443607 2426.570253841579 1983.6361425369978 686.30946354568005 9330.4572636112571
leaf_count=24343 216765 7707 3221 226801 38884 14801 18936 2901 33416 41490 163017 59470 93451 2117 381555 8780 6408 24412 199832 7984 90639 254097 518591 550460 482258 150934 30543 30474 4554 326453
internal_value=-0.000164602 0.00755781 0.0136741 -0.021997 -0.0149156 0.0151903 -0.00418974 -0.00289918 -0.0116125 -0.00720791 0.0110682 0.00885492 -0.000158135 -0.00110793 -0.0347068 0.0218232 -0.00343445 -0.0055395 0.00959803 -0.00279532 -0.00199594 -0.00356141 -0.00695696 0.0210175 0.00732866 0.016053 -0.0259726 -0.037597 0.0270576 -0.00732863
internal_weight=151915 112221 73798.5 39694.1 25491.2 71080.2 38422.6 37075 22825.9 17051.4 43837.1 36715.6 31603.8 30538 14202.9 27243.1 14112.2 12665.3 35965.2 27119 26253.5 23429.1 14967.4 26408.3 26609.9 9355.25 2718.32 12067.2 1065.74 11779.5
internal_count=4015294 2881058 1671023 1134236 697864 1637259 1210035 1191099 658980 432179 1063218 900201 974334 966879 436372 574041 398763 357273 892494 873428 865444 774805 520708 559240 682090 210404 33764 412029 7455 350865
is_linear=0
shrinkage=0.05


Tree=17
num_leaves=31
num_cat=0
split_feature=10 13 10 52 10 13 11 1 52 22 12 52 52 12 52 52 20 52 42 52 15 52 9 52 24 20 12 21 52 23
split_gain=9411.41 3831.68 2282.91 1257.82 901.285 624.343 552.417 478.238 392.301 324.632 317.043 285.875 280.861 281.035 269.213 253.187 233.396 222.312 206.058 205.544 178.226 166.262 165.994 138.512 129.098 125.462 123.112 122.229 120.444 120.137
threshold=0.0028037969022989277 1.0000000180025095e-35 0.0055521228350698957 -0.36471304297447199 0.0018116996507160368 3.9999998807907109 0.0037214277544990186 -0.01882047206163406 0.010160960257053377 -0.0083995000459253771 0.0086580016650259512 0.38579386472702032 0.053634986281394965 0.0025918126339092855 -0.35166387259960169 0.010160960257053377 15.979074001312258 -0.9532836079597472 0.0054228845983743676 -0.63979980349540699 0.65260201692581188 -0.69716954231262196 0.0048714659642428168 0.25393319129943853 -0.024021155200898644 1.0000000180025095e-35 0.0053368096705526122 20.202893257141117 -0.82184672355651844 -0.059887327253818505
decision_type=2 2 2 2 2 2 2 2 2 2 2 2 2 2 2 2 2 2 2 2 2 2 2 2 2 2 2 2 2 2
left_child=4 3 6 16 14 7 17 29 9 24 15 25 13 -6 27 22 -2 -3 -19 -11 26 -15 -9 -16 -8 -5 -21 -1 -18 -4
right_child=1 2 5 11 12 -7 8 10 -10 19 -12 -13 -14 21 23 -17 28 18 -20 20 -22 -23 -24 -25 -26 -27 -28 -29 -30 -31
leaf_value=-0.02494518568633047 -0.011865432078425227 0.038568700150794 0.043052389101844793 -0.033354387934055402 -0.027011334875138501 -0.022633419931290921 0.023075611877027658 0.0084044497737771097 -0.030111347429568714 0.037203770348806287 0.021222583951690445 -0.045325512572724304 -0.044487689323234436 0.013060553090831338 -0.034727725217021013 -0.019312605249771665 0.019364290200236452 -0.0091381945461952978 0.0072214570089088135 -0.0036980313655772951 0.0077015834922008882 -0.013291323457801355 0.016366822747099774 -0.049442378464100517 0.0098044386005613372 -0.01877228195406121 0.0046642894477125097 0.0021007496004281758 -0.0031206967045821952 0.026459618017346739
leaf_weight=1693.9450593069196 1784.4397344067693 276.64322242885828 1340.7577072568238 2576.1252580136061 4114.8780284058303 982.62777871266007 3152.6117338687181 11048.942450881004 765.42400324344635 454.05438114702702 16103.19219193235 2427.9749658927321 886.96527185291052 629.15101121366024 9514.9074292853475 615.35581635683775 1716.8537774831057 12731.218915436417 2267.6187494229525 9826.8610291928053 13279.209126226604 12311.631548799574 16059.460491703823 1922.4216055348516 4376.2303713709116 3451.1587784718722 7971.8698610886931 554.48711250722408 911.92624741792679 5853.4467556998134
leaf_count=19898 17307 1715 23744 31432 184755 9935 78232 283960 10367 2879 341252 36396 13232 5444 369746 7542 11513 439912 69434 308010 382336 464405 371743 30862 111328 36902 221561 6232 7183 116037
internal_value=-0.000164128 0.00623233 0.00932959 -0.0195465 -0.0244274 0.0168436 0.00223801 0.0176039 0.00533853 0.00603319 0.0156427 -0.03084 -0.0170559 -0.0156294 -0.0340917 0.0124016 0.00209069 -0.00584565 -0.00666484 0.00380587 0.00331792 -0.0120102 0.0131215 -0.037201 0.0153616 -0.0250048 4.73668e-05 -0.0182754 0.0115642 0.029552
internal_weight=151602 119974 107106 12868.5 31628.4 52003.8 55101.7 51021.2 39826.3 39060.8 43827 8455.26 17942.6 17055.7 13685.8 27723.8 4413.22 15275.5 14998.8 31532 31077.9 12940.8 27108.4 11437.3 7528.84 6027.28 17798.7 2248.43 2628.78 7194.2
internal_count=4015294 2920720 2779987 140733 1094574 1154213 1625774 1144278 1114713 1104346 1004497 104730 667836 654604 426738 663245 36003 511061 509346 914786 911907 469849 655703 400608 189560 68334 529571 26130 18696 139781
is_linear=0
shrinkage=0.05


Tree=18
num_leaves=31
num_cat=0
split_feature=9 10 52 10 52 42 11 12 52 12 20 52 20 52 20 22 45 15 40 52 5 46 12 22 24 52 46 42 12 20
split_gain=8685.24 2886.98 1567.1 1084.19 787.438 728.57 571.555 557.223 528.523 446.746 378.226 285.85 272.928 257.135 228.839 224.668 240.059 203.376 198.714 182.039 194.363 175.422 167.754 163.272 140.752 130.52 167.345 123.511 123.382 122
threshold=0.0017074546194635334 0.0041226078756153592 0.053634986281394965 0.0018393913051113488 0.20680738985538485 0.0099834124557673948 0.0026746372459456329 0.0064550980459898719 0.073749359697103514 0.0030584535561501984 1.0000000180025095e-35 -1.5449287295341489 1.0000000180025095e-35 -0.35166387259960169 1.0000000180025095e-35 -0.0078637888655066473 -0.002965160994790494 0.92065307497978222 0.0076687894761562356 -1.3000364303588865 -0.0013548639835789798 0.0020833243615925316 0.0043990989215672025 -0.013356754090636967 -0.046597585082054131 -0.93425652384757985 0.0022256649099290375 0.004675616044551135 0.0043767821043729791 1.0000000180025095e-35
decision_type=2 2 2 2 2 2 2 2 2 2 2 2 2 2 2 2 2 2 2 2 2 2 2 2 2 2 2 2 2 2
left_child=3 6 5 13 9 7 27 12 11 -5 -11 -8 -3 -1 -9 29 -17 25 21 -12 -21 22 -18 -16 -4 -14 -27 -2 -22 -13
right_child=1 2 24 4 -6 -7 8 14 -10 10 19 15 17 -15 23 16 18 -19 -20 20 28 -23 -24 -25 -26 26 -28 -29 -30 -31
leaf_value=-0.018445938971488635 -0.021661463625578706 -0.02602227992785144 0.0073438039422533789 -0.027018613991279895 -0.044420259769288067 0.02426371531144722 0.046362973048502613 -0.019451435716101102 -0.039167553981840936 -0.024496992788655702 0.022599918531741262 -0.023801773219132676 0.024694328782732849 -0.037615889866273344 0.022996450827693721 0.031562725477901343 -0.0090042971053484449 0.012102290012036625 0.0071416374117871887 0.008323940121214379 -0.014910745697017357 -0.029496562926615878 0.00034371288057884284 0.014193341375438829 -0.029113642919057083 0.0040487610323072581 -0.018790710846478837 -0.00063767992495383319 -0.0040140410085130742 0.010605659330386472
leaf_weight=2121.5082577317953 5502.8026905488223 641.76743155531585 296.33798361942172 4264.7883484847844 2155.2149496898055 12086.367986908183 311.87618134170771 461.82668641582131 948.78750340640545 3100.8759325370193 568.88528651744127 274.36187638342381 723.0365983620286 9970.0229830350727 6622.6085145995021 474.59902652353048 11931.519504133612 11850.742097159848 3253.0658391769975 1913.8262943066657 4793.9881772417575 774.55003864318132 8028.6871218495071 25735.768823672086 2482.9393584579229 18458.090722775087 838.44375628232956 800.17655683495104 5670.5555847827345 4224.1137748304754
leaf_count=25161 230727 6805 3285 178691 34049 253384 1971 4740 14295 36958 3901 2746 4417 349862 127328 3615 436092 298374 103727 59362 168208 7490 250198 576355 32945 503019 7225 29356 139291 121717
internal_value=-0.000163317 0.00635559 0.0116623 -0.0221804 -0.0156837 0.0129866 -0.0052965 0.0109003 -0.00244008 -0.0126347 -0.00881215 -0.00124967 0.00626085 -0.0342524 0.0154962 -0.00176241 -0.00365091 0.00691093 -0.00434761 -0.00505562 -0.00632662 -0.00615015 -0.0052442 0.015995 -0.0252264 0.00383786 0.00305637 -0.0189924 -0.00900601 0.00850715
internal_weight=151282 116722 80197.9 34559.7 22468.1 77418.7 36524.5 65332.3 30221.6 20312.9 16048.1 29272.8 32512.1 12091.5 32820.2 28960.9 24462.4 31870.3 23987.8 12947.3 12378.4 20734.8 19960.2 32358.4 2779.28 20019.6 19296.5 6302.98 10464.5 4498.48
internal_count=4015294 3019811 1817877 995483 620460 1781647 1201934 1528263 941851 586411 407720 927556 819840 375023 708423 925585 801122 813035 797507 370762 366861 693780 686290 703683 36230 514661 510244 260083 307499 124463
is_linear=0
shrinkage=0.05


Tree=19
num_leaves=31
num_cat=0
split_feature=10 13 11 52 10 22 25 52 40 12 12 52 12 52 52 45 21 13 15 52 20 52 45 24 16 52 16 20 23 52
split_gain=7964.22 3231.75 1883.37 1139.56 810.34 487.654 438.105 393.571 338.897 326.357 301.188 281.961 332.208 269.733 263.748 232.778 201.425 184.885 168.253 167.542 164.731 157.627 152.477 136.667 123.239 120.222 114.799 109.521 106.497 102.941
threshold=0.002783829928375781 1.0000000180025095e-35 0.005229704314842821 -0.30258908867835993 0.001635303895454854 -0.017136383801698681 -1.4539973735809324 0.010160960257053377 0.0099256588146090525 0.0038129616295918827 0.0082076587714254873 0.053634986281394965 0.0025918126339092855 0.54269465804100048 -0.27433042228221888 0.00020613882225006821 24.046710014343265 3.9200642108917241 0.7407839596271516 -0.69716954231262196 1.0000000180025095e-35 -1.6452170014381406 -0.0026069589657708998 -0.02671824116259813 0.91315519809722911 -0.79104888439178456 0.75742515921592724 1.0000000180025095e-35 -0.08324646949768065 0.096247818320989623
decision_type=2 2 2 2 2 2 2 2 2 2 2 2 2 2 2 2 2 2 2 2 2 2 2 2 2 2 2 2 2 2
left_child=4 3 6 16 14 17 20 10 9 22 18 12 -6 27 -1 25 -2 28 -7 -14 -3 -18 -8 -22 -21 -11 -27 -5 -4 -24
right_child=1 2 5 13 11 7 8 -9 -10 15 -12 -13 19 -15 -16 -17 21 -19 -20 24 23 -23 29 -25 -26 26 -28 -29 -30 -31
leaf_value=-0.018458367505559316 -0.015068139967310587 -0.033098881446387542 0.042809800985860846 -0.032678543848645818 -0.026861237399504991 0.0066904695608745682 0.026779150980909917 -0.016817287748930754 0.010963962663425713 0.040408671174893683 0.017578017505645128 -0.043871465726442578 0.012799086160991652 -0.04623808945578195 -0.037830743979936188 -0.023387476644524733 0.028132996228342522 -0.013540970970942791 0.014024234469157931 -0.015425076322352342 0.022502904320411115 0.0019939755405596689 -0.010548956914572803 0.0080541717466602672 -0.0034770243164701981 -0.001818408410315044 0.0060473804994594996 -0.018997677855820835 0.023834263439895691 -0.045296559789516494
leaf_weight=2191.457105062902 1340.4262324720621 204.323989469558 808.3802610039711 2519.8696343079209 4781.5656461566687 18901.173714589328 270.27161063626409 1154.5210222490132 4656.5147243887186 194.63219182193279 19651.233898840845 925.11215260997415 674.20688429474831 1926.2364250198007 8861.7076015397906 1001.3703157417476 746.22676579654217 314.05482895113528 13340.749207993969 9774.6594494823366 2336.013389242813 2539.5849999114871 10831.187594301999 5466.2635949347168 2769.7656544968486 13298.176322022453 7123.4613738562912 3487.5367359183729 8666.8778022527695 217.42540292069316
leaf_count=26651 12819 2057 13927 32749 230504 481450 1990 14508 135960 1167 421815 14794 5953 31035 310839 10367 5026 2948 318322 379194 57896 20355 391178 149872 111464 411972 205988 39380 169797 3317
internal_value=-0.000161998 0.0055542 0.00833524 -0.0184561 -0.0232332 0.0139486 0.000599953 0.0120564 -0.00166182 -0.00344683 0.0126988 -0.0169509 -0.0155673 -0.0299568 -0.0339899 0.000154599 0.00126663 0.0242022 0.00972496 -0.011482 0.0112195 0.0079303 -0.0103251 0.0123801 -0.012787 0.00129808 0.000925331 -0.0247363 0.0254532 -0.0112328
internal_weight=150975 120997 108437 12559.9 29978.5 62837 45599.6 53047.7 37593 32936.5 51893.2 18925.3 18000.2 7933.64 11053.2 21617.6 4626.24 9789.31 32241.9 13218.6 8006.6 3285.81 11318.9 7802.28 12544.4 20616.3 20421.6 6007.41 9475.26 11048.6
internal_count=4015294 2935895 2794531 141364 1079399 1422767 1371764 1236095 1161939 1025979 1221587 741909 727115 103164 337490 629494 38200 186672 799772 496611 209825 25381 396485 207768 490658 619127 617960 72129 183724 394495
is_linear=0
shrinkage=0.05


Tree=20
num_leaves=31
num_cat=0
split_feature=9 12 52 52 11 52 10 20 43 20 42 22 12 45 13 16 52 12 12 42 40 52 12 52 16 3 12 52 46 5
split_gain=7377.21 2364.81 1148.59 1024.36 1093.88 673.878 560.898 542.307 512.109 441.56 333.607 314.589 263.538 257.283 221.573 194.67 162.94 155.419 152.088 148.188 136.17 122.371 119.935 114.874 103.572 103.411 100.649 94.6789 94.9875 94.6119
threshold=0.0017074546194635334 0.0048499316908419141 0.073749359697103514 0.20680738985538485 0.0026280432939529423 0.010160960257053377 0.0026790465926751499 1.0000000180025095e-35 0.0064485156908631333 1.0000000180025095e-35 0.0063148578628897676 -0.011404648423194884 0.0043105587828904399 -0.0017637141281738875 3.697013378143311 0.85052844882011425 -1.4127871990203855 0.0021299984073266391 0.006818280555307866 0.019256679341197017 0.01600294187664986 -1.4127871990203855 0.0033609938109293584 -0.9532836079597472 0.63552668690681469 -0.056018820032477372 0.0026447500567883257 -0.71365126967430104 0.0024844447616487746 -0.0013548639835789798
decision_type=2 2 2 2 2 2 2 2 2 2 2 2 2 2 2 2 2 2 2 2 2 2 2 2 2 2 2 2 2 2
left_child=3 5 8 4 17 6 21 16 9 -3 13 -11 23 14 -8 22 -6 -1 24 -10 25 -2 -15 -9 27 -4 -23 -13 -29 -14
right_child=1 2 20 -5 7 -7 10 12 19 11 -12 18 29 15 -16 -17 -18 -19 -20 -21 -22 26 -24 -25 -26 -27 -28 28 -30 -31
leaf_value=-0.039593878193131177 0.043652111292818291 -0.023019316579106441 0.0041179846039438965 -0.045635395295075036 -0.002515789004624288 -0.038928575732288535 0.031718436977079635 0.019348559360460708 0.017100158416645101 0.018436886236922891 0.011908237806840987 0.02364790192148581 0.01308160911321362 -0.014486719342701111 -0.017621379522553424 0.002547683503368565 -0.027662744005775654 -0.026501062045658403 0.011625891082346573 0.029840792680378782 0.024500046264455077 -0.022766068656960098 -0.0040309582751246447 -0.014393681891849112 0.0094633239890072312 -0.029429947236103662 -0.010948898878307578 0.0025939035189379957 -0.018548036812876516 -0.0021714111542196659
leaf_weight=3906.8899210728705 90.055502764880657 1025.5254424959421 258.98737837001681 3718.240051612258 740.35148158669472 1312.650174587965 971.89877732098103 261.91315317153931 19463.922545306385 9252.9077437072992 5252.061905067414 508.77217132598162 1209.8981648217887 3480.221916154027 297.09907373785973 10201.268928738311 4958.1676507182419 5398.7808747813106 17913.191727411002 2585.4557008035481 143.93438342213631 2727.0514962114394 12941.618432952091 6829.1444153748453 9215.2023563813418 2031.8508286960423 5311.1071112919599 11735.580977940932 556.46289735287428 6365.3203986249864
leaf_count=192656 704 11098 3001 64668 8220 20313 6399 2023 410131 185594 139851 3191 33713 124499 2310 319282 67660 205012 402624 48959 1772 133732 391116 269588 240270 28483 213732 327741 5009 151943
internal_value=-0.00016039 0.00574302 0.0111041 -0.0208959 -0.0177956 -0.00366005 -0.00253835 -0.0113059 0.0122423 0.00945279 0.000348179 0.0101299 -0.00621993 -0.00182857 0.0201669 -0.00287699 -0.0243957 -0.0319979 0.00820488 0.0185941 -0.0226733 -0.0143087 -0.00624681 -0.0131474 0.00542139 -0.0256372 -0.014958 0.00251164 0.0016368 0.00026477
internal_weight=150666 117277 74691.8 33388.7 29670.5 42585 41272.4 20364.8 72257 50207.6 33144.2 49182.1 14666.3 27892.1 1269 26623.1 5698.52 9305.67 39929.2 22049.4 2434.77 8128.21 16421.8 7091.06 22016 2290.84 8038.16 12800.8 12292 7575.22
internal_count=4015294 3019811 1667873 995483 930815 1351938 1331625 533147 1634617 1175527 983457 1164429 457267 843606 8709 834897 75880 397668 978835 459090 33256 348168 515615 271611 576211 31484 347464 335941 332750 185656
is_linear=0
shrinkage=0.05


Tree=21
num_leaves=31
num_cat=0
split_feature=9 10 52 52 11 52 11 42 20 20 12 52 12 22 46 22 0 12 40 12 44 12 46 52 42 45 20 20 16 52
split_gain=6754.35 2132.33 1113.92 998.665 1041.67 551.166 518.921 506.546 504.298 372.702 339.382 257.632 232.363 217.143 177.744 183.026 168.229 166.403 157.688 151.493 134.25 126.774 122.253 118.525 117.296 116.333 105.989 104.495 100.669 100.266
threshold=0.0017074546194635334 0.0043505700305104264 0.053634986281394965 0.20680738985538485 0.0026746372459456329 0.073749359697103514 0.0026746372459456329 0.011080180760473015 1.0000000180025095e-35 1.0000000180025095e-35 0.006818280555307866 -0.68659135699272145 0.0043105587828904399 -0.0083995000459253771 0.0024057895643636589 0.0094734877347946184 -0.0020825050305575128 0.0021656763274222617 0.0057246405631303796 0.0034863571636378769 0.011426861863583328 0.013527679722756149 0.0022256649099290375 -0.62686306238174427 0.0059121532831341037 -0.0021744085242971774 12.21970844268799 1.0000000180025095e-35 0.62963327765464794 -0.9532836079597472
decision_type=2 2 2 2 2 2 2 2 2 2 2 2 2 2 2 2 2 2 2 2 2 2 2 2 2 2 2 2 2 2
left_child=3 5 7 4 17 6 24 9 18 -3 16 26 29 27 15 19 -11 -1 -6 25 -4 28 -18 -24 -2 -15 -8 -13 -12 -10
right_child=1 2 20 -5 8 -7 11 -9 12 10 21 13 -14 14 -16 -17 22 -19 -20 -21 -22 -23 23 -25 -26 -27 -28 -29 -30 -31
leaf_value=-0.038704721295182473 -0.018367933360945027 -0.020321745891958124 -0.026005319370050947 -0.045176547955982915 -0.027487558120542634 -0.037942494275114202 -0.0056105276384029873 0.021858258530316352 0.018041436816922926 0.011634444343735581 0.0098319519445357745 -0.027012656038149171 0.00028348753220170601 0.046931570669505963 -0.025029898732815532 0.0091331275420348888 0.0050631324804656826 -0.025216065771463354 -0.0054568836889017681 -0.0014644629661110992 0.016556266604269041 0.022058781262270073 0.018179513691449305 -0.020372328593060925 0.010120352864875842 -0.01166705220437133 0.030819224035524281 0.010086432855009281 0.016073171634336945 -0.013675196984636206
leaf_weight=3955.1380306473002 5517.6822352726012 1010.6966452877969 2288.9304511584342 3571.9212677516043 4525.7318006148562 1150.3798318691552 256.48385514318943 10075.476534381509 259.08133470267057 11624.094227308407 13612.486297868192 197.96809623390436 7560.875499131158 85.980769626796246 883.34893745929003 3127.0768946707249 20369.611618384719 5419.4399003265426 989.89385380595922 17846.225371696055 201.59407741576433 4306.2234420776367 257.03786052763462 888.63527854532003 386.63829699344933 5671.5657013729215 901.19206234067678 4603.9361788183451 12298.108740672469 6522.7812731452286
leaf_count=201469 244299 11041 31979 64668 62856 18935 2101 202497 1964 276704 289615 2173 185181 678 8819 99502 527757 208606 12059 574447 2319 83171 1644 7908 13338 225287 5687 129660 260250 258680
internal_value=-0.000158448 0.00543943 0.010333 -0.0202193 -0.0171699 -0.00382686 -0.00283274 0.0114335 -0.010685 0.00980164 0.0102822 -0.000428782 -0.00574386 -0.0012565 -0.00296299 -0.00223376 0.00678779 -0.0309069 -0.0235337 -0.00373967 -0.0225602 0.0141146 0.00416928 -0.011723 -0.0165024 -0.010792 0.0227482 0.00855695 0.0127943 -0.0124636
internal_weight=150366 117561 76932.9 32804.9 29232.9 40628.5 39478.1 74442.4 19858.4 64366.9 63356.2 33573.8 14342.7 32416.1 27614.2 26730.8 33139.4 9374.58 5515.63 23603.8 2490.52 30216.8 21515.3 1145.67 5904.32 5757.55 1157.68 4801.9 25910.6 6781.86
internal_count=4015294 3019811 1694885 995483 930815 1324926 1305991 1660587 520740 1458090 1447049 1048354 445825 1040566 908733 899914 814013 410075 74915 800412 34298 633036 537309 9552 257637 225965 7788 131833 549865 260644
is_linear=0
shrinkage=0.05


Tree=22
num_leaves=31
num_cat=0
split_feature=10 13 12 52 10 23 0 13 10 52 22 52 52 12 52 52 12 21 13 52 20 23 16 11 44 40 13 52 16 52
split_gain=6226.04 2516.71 1526.36 1018.77 597.397 494.754 383.355 373.678 312.189 304.592 282.249 257.743 225.042 261.486 207.054 193.911 195.414 170.478 149.098 127.519 119.819 116.281 113.357 111.6 111.272 123.75 109.477 108.809 103.297 100.481
threshold=0.0026557131204754118 1.0000000180025095e-35 0.0048499316908419141 -0.55154511332511891 0.0016014192369766536 -0.025792210362851616 -0.0039590967353433362 3.9999998807907109 0.0066555128432810315 0.54269465804100048 0.011788088828325273 -0.27433042228221888 0.053634986281394965 0.0025918126339092855 -1.2379240393638609 0.033284509554505355 0.0033817776711657648 30.328214645385746 3.9999998807907109 -0.69716954231262196 1.0000000180025095e-35 -0.08324646949768065 0.65910822153091442 0.013650794047862293 0.0023449162254109983 -0.010983206797391174 3.9200642108917241 0.010160960257053377 0.62963327765464794 0.25393319129943853
decision_type=2 2 2 2 2 2 2 2 2 2 2 2 2 2 2 2 2 2 2 2 2 2 2 2 2 2 2 2 2 2
left_child=4 3 6 17 11 21 18 8 27 20 14 -1 13 -6 -8 16 -16 -2 24 -15 -5 -4 -18 -10 -3 -26 -23 28 -7 -13
right_child=1 2 5 9 12 7 10 -9 23 -11 -12 29 -14 19 15 -17 22 -19 -20 -21 -22 26 -24 -25 25 -27 -28 -29 -30 -31
leaf_value=-0.016452800462157684 -0.0093937947662186948 0.028190646454549297 0.036793877584330746 -0.029907641340633753 -0.025612066870654999 0.004313386980413606 0.048218090296376345 -0.021581947947404416 0.012256970801650495 -0.04502851799049435 0.010375847649096319 -0.033593787969669324 -0.043344667061907718 0.011658206474205367 -0.012279176683310224 -0.036603179771660249 -0.0060383594792902109 0.012400514122230703 -0.026033476030485076 -0.01234467310358691 -0.016297830213684538 0.01937116116003668 0.0015729469004302145 0.02125390200615453 0.018750160584217076 0.0034179321733466533 -0.011755374656471505 -0.017956348278869282 0.010029591982288696 -0.048031766823625172
leaf_weight=2057.8290587812662 1419.1526200994849 792.32642799057066 949.67139882780612 2693.0692123919725 4311.1475912127644 18918.873957855627 178.98196393996477 973.65991215594113 23377.495454344898 1772.4087370745838 3167.3574937991798 6337.5294414293021 745.6648669950664 585.11840881407261 7095.5143515020609 499.5082144215703 10846.311111455783 2439.9131933376193 290.00797722674906 10186.914744377136 4048.0507572777569 11541.251653049141 8910.6080040913075 4042.8602523468435 1925.4328318852931 4158.363765604794 289.5768709462136 453.64914314076304 13573.799277463928 1488.0014578029513
leaf_count=26429 13069 11290 15852 36996 224980 505010 1055 10979 501479 31791 90498 266578 13220 5268 280113 8191 354101 17981 3179 417891 45218 234405 270281 77464 47804 121099 2829 6568 344691 28985
internal_value=-0.000156204 0.00447466 0.00683895 -0.0169246 -0.0225535 0.0110111 -0.00132824 0.00914649 0.00964211 -0.0265844 -0.00375899 -0.0321986 -0.0165313 -0.0152057 -0.00538516 -0.00573592 -0.00516173 0.00438576 0.0090846 -0.0110409 -0.0217349 0.0199605 -0.00260557 0.0135835 0.0105657 0.00827036 0.0186093 0.00636181 0.00670133 -0.0363391
internal_weight=150070 124358 111985 12372.6 25712.2 74120.8 37864.4 61340.3 60366.7 8513.53 30698.3 9883.36 15828.8 15083.2 27530.9 27351.9 26852.4 3859.07 7166.13 10772 6741.12 12780.5 19756.9 27420.4 6876.12 6083.8 11830.8 32946.3 32492.7 7825.53
internal_count=4015294 3031943 2886888 145055 983351 1699277 1187611 1446191 1435212 114005 1004239 321992 661359 648139 913741 912686 904495 31050 183372 423159 82214 253086 624382 578943 180193 168903 237234 856269 849701 295563
is_linear=0
shrinkage=0.05


Tree=23
num_leaves=31
num_cat=0
split_feature=9 11 52 52 12 43 20 20 22 11 52 12 12 52 15 52 42 52 46 40 45 24 15 40 52 0 16 52 9 35
split_gain=5731.67 1833.26 1120.91 895.837 900.764 544.904 482.202 335.52 342.49 321.91 279.641 231.175 230.784 229.234 233.407 215.398 151.356 131.776 168.567 131.263 115.536 109.92 108.109 106.354 103.667 90.81 83.5946 83.3333 102.049 81.1602
threshold=0.0016327461344189944 0.003997103078290821 0.053634986281394965 0.20680738985538485 0.0025918126339092855 0.005877785151824356 1.0000000180025095e-35 1.0000000180025095e-35 -0.012990514282137154 0.0026035944465547804 0.010160960257053377 0.00410134973935783 0.0067243599332869062 -0.80717232823371876 1.0622790455818178 -1.0029845237731931 0.014170818496495487 -0.72898140549659718 0.0015989237581379714 0.01600294187664986 -0.002965160994790494 -0.034980472177267068 0.83443111181259166 0.0075080392416566619 -1.3000364303588865 -0.004043848253786563 0.87644129991531383 -2.1576598882675166 0.00025741051649674779 0.020833333488553766
decision_type=2 2 2 2 2 2 2 2 2 2 2 2 2 2 2 2 2 2 2 2 2 2 2 2 2 2 2 2 2 2
left_child=3 9 5 4 -1 7 15 -3 29 23 13 24 17 -11 20 -6 -7 -10 22 21 -15 -4 -19 25 -8 -2 -26 -13 -29 -9
right_child=1 2 19 -5 6 16 11 8 12 10 -12 27 -14 14 -16 -17 -18 18 -20 -21 -22 -23 -24 -25 26 -27 -28 28 -30 -31
leaf_value=-0.033982101203778391 -0.00051058452835458265 -0.020966514585383223 -0.0026841262686052702 -0.044319398219800063 -0.0059276829627126241 0.013032207340604044 0.025932322150535005 0.0043604047556456303 0.020043357569699338 0.023818920581091949 -0.036593100766548113 0.039055692520035323 0.0099476099403555673 0.026649424786671629 0.0034222873324255953 -0.027777197174689891 0.022097482693950628 0.00089111579536265925 -0.016231889768188703 0.021510967456354897 -0.0082059939367861937 -0.0301441097715987 0.0072609773587000775 0.0076519911560071156 -0.017674870551613854 -0.021413795509324721 -0.0041330950613088164 -0.01241852761754441 0.0014556314370146456 0.018241168280695674
leaf_weight=5843.1163706881925 585.76631934288889 1093.7784281335771 436.65782843530178 3270.3227973543108 1443.5494251996279 22943.373971613124 161.87771643698215 1230.3721148818731 1080.6080680638552 780.92133304476738 629.16522759571671 128.262596167624 17981.219467068091 241.98407683894038 7367.9767621159554 5159.6952291261405 5760.5061273556203 19994.518352393061 1182.7025740891695 156.61445097625256 13583.849714044482 2203.2177028954029 9988.6947056427598 401.76404085662216 4983.9778414396569 4597.9809929681942 1477.4791248226538 1696.3216466195881 6060.7096003526822 7307.5698700137436
leaf_count=299922 21630 12353 5444 64027 16796 493263 1213 8338 6548 5063 10805 858 397190 1831 235714 77912 109996 578069 10475 1931 486128 33743 270760 15882 213077 214822 64136 18771 178557 160040
internal_value=-0.000153827 0.00476434 0.00820367 -0.0196065 -0.0166082 0.00918781 -0.0117997 0.00647195 0.00698265 -0.00638227 -0.00372623 -0.00670181 0.0054089 -0.00278521 -0.00376548 -0.0230006 0.0148515 0.00287804 0.00228287 -0.0229635 -0.00759594 -0.025602 0.00301319 -0.0171309 -0.0135883 -0.0190517 -0.0145784 -0.000917439 -0.00157839 0.0162409
internal_weight=149775 119549 91359.8 30225.3 26955 88563.3 21111.9 59859.5 58765.7 28189.4 22603.9 14508.6 50227.7 21974.7 21193.8 6603.24 28703.9 32246.5 31165.9 2796.49 13825.8 2639.88 29983.2 5585.51 6623.33 5183.75 6461.46 7885.29 7757.03 8537.94
internal_count=4015294 3080025 2088150 935269 871242 2047032 571320 1443773 1431420 991875 739541 476612 1263042 728736 723673 94708 603259 865852 859304 41118 487959 39187 848829 252334 278426 236452 277213 198186 197328 168378
is_linear=0
shrinkage=0.05


Tree=24
num_leaves=31
num_cat=0
split_feature=10 52 9 1 52 11 20 24 9 52 12 11 52 40 44 40 22 45 22 16 45 40 45 12 40 23 21 12 25 52
split_gain=5291.53 2136.98 1310.24 585.719 524.526 532.42 461.902 381.02 368.066 342.112 348.479 231.56 186.126 185.543 172.214 169.176 168.272 154.956 143.996 123.859 116.802 115.799 114.598 114.118 109.824 105.191 98.1975 115.889 97.6927 95.2878
threshold=0.0026111410697922115 0.010160960257053377 0.0036390487803146247 -0.0089909574016928655 0.073749359697103514 0.0020522716222330932 1.0000000180025095e-35 -0.039837827906012528 0.00036121557059232151 -0.75756537914276112 0.0044625848531723031 0.0072082846891134986 0.72393634915351879 0.0060978890396654615 0.011426861863583328 1.0000000180025095e-35 -0.0057852610480040303 0.004377025645226241 0.0072740591131150731 1.3439946770668032 -0.0024611443514004345 0.013585889711976053 -0.0036355156917124982 0.0030798400985077028 0.0044295231346040973 -0.018659845925867554 1.0000000180025095e-35 0.0030354126356542115 -1.4725251197814939 -1.1703969240188596
decision_type=2 2 2 2 2 2 2 2 2 2 2 2 2 2 2 2 2 2 2 2 2 2 2 2 2 2 2 2 2 2
left_child=4 2 3 25 5 24 21 28 15 -10 18 17 14 16 -3 -5 -7 19 20 29 -11 -4 -18 -22 -1 -2 -24 -28 -8 -9
right_child=1 12 6 8 -6 13 7 11 9 10 -12 -13 -14 -15 -16 -17 22 -19 -20 -21 23 -23 26 -25 -26 -27 27 -29 -30 -31
leaf_value=-0.0340797102383932 0.023595641770014521 -0.02276836698534308 -0.023324995974193016 -0.025691459256474959 -0.044778788925732678 -7.6630175679036412e-05 0.024817181987540286 0.023835829676952483 0.026942131911438974 0.028199452425691437 0.0020474595889006411 0.012523686180587818 -0.039584026492936221 0.001918248731005023 0.032742467470917531 -0.0059118050620838372 0.043206861977509316 -0.018263658896666306 0.0031658381397981512 0.0112902208689833 -0.018371315713293486 0.028334814634382421 -0.029250216301691358 -0.0076672865175359886 -0.013403801127608637 0.0092220049706519883 -0.022994998434051426 -0.012307381361802323 0.015061589568870557 0.0042374804337856013
leaf_weight=5505.9230931587517 1888.1534929927438 2792.3501555360854 1273.7609865795821 2400.9751882944256 2234.1054643876851 1449.0207161298022 4115.8674606457353 635.82261552661657 1030.9504797682166 201.43806596845388 20973.090593945235 22835.393097048625 2062.6409880816936 1573.2396894833073 147.07731475681067 1966.4113974496722 75.803999416530132 641.02059891819954 2614.8501539677382 9916.4943227563053 3240.899934541434 118.57519199699163 1800.4473910955712 10746.899442248046 727.06555371917784 3906.1902841553092 4249.1977080618963 6292.5558573091403 6815.9345344491303 25256.635144777596
leaf_count=280235 44527 44323 13990 32630 45182 55916 74789 3603 6711 1537 570564 459980 36676 48780 1647 22035 728 5089 90793 243343 140842 1332 28248 376842 25631 102666 226536 239057 136969 654093
internal_value=-0.000151195 0.0039533 0.00528175 -0.00102098 -0.0217114 -0.0193336 0.00959185 0.0101573 -0.00302423 -0.00147554 -0.00225107 0.00857573 -0.0280702 -0.0143545 -0.0199908 -0.0167857 -0.0162006 0.00610239 -0.00761603 0.00653857 -0.00960296 -0.0189255 -0.0180821 -0.0101474 -0.0316679 0.0139058 -0.0184585 -0.0166154 0.0187346 0.00471874
internal_weight=149489 125581 120579 48969.9 23907.4 21673.3 71609.5 70217.2 43175.5 38808.1 37777.2 59285.4 5002.07 15440.3 2939.43 4367.39 13867 36450 16804.1 35809 14189.2 1392.34 12418 13987.8 6232.99 5794.34 12342.2 10541.8 10931.8 25892.5
internal_count=4015294 3064981 2982335 1389147 950313 905131 1593188 1577866 1241954 1187289 1180578 1366108 82646 599265 45970 54665 550485 906128 610014 901039 519221 15322 494569 517684 305866 147193 493841 465593 211758 657696
is_linear=0
shrinkage=0.05


Tree=25
num_leaves=31
num_cat=0
split_feature=10 13 12 52 52 11 13 1 0 22 52 9 12 40 22 52 21 13 39 1 52 52 45 51 16 12 20 40 1 52
split_gain=4855.68 1968.93 1186.87 887.24 513.059 511.649 374.476 380.929 346.963 278.18 239.697 214.366 184.004 181.218 159.95 151.939 143.919 139.576 129.172 166.316 126.208 116.941 109.15 105.626 104.956 102.712 109.334 101.615 102.864 98.9773
threshold=0.0026111410697922115 1.0000000180025095e-35 0.0050489737186580905 -0.23668777197599408 0.073749359697103514 0.001981812529265881 3.9999998807907109 -0.015112740453332661 -0.0030844784341752525 0.010946614202111961 0.5533147156238557 0.0049588542897254237 0.0030584535561501984 0.0062214774079620847 -0.0057852610480040303 0.053634986281394965 24.046710014343265 3.9999998807907109 -0.0015744892880320547 -0.0098475655540823919 -1.6452170014381406 -1.3419594168663023 -0.0031762116122990842 1.0252738595008852 0.65910822153091442 0.0025918126339092855 1.0000000180025095e-35 0.01543885236606002 -0.001432121032848954 -0.55154511332511891
decision_type=2 2 2 2 2 2 2 2 2 2 2 2 2 2 2 2 2 2 2 2 2 2 2 2 2 2 2 2 2 2
left_child=4 3 8 16 5 -1 7 -4 17 12 27 -9 -10 14 -7 21 -2 18 19 -3 -18 -14 -16 -13 -23 -24 -27 28 -5 -28
right_child=1 2 6 10 -6 13 -8 11 9 -11 -12 23 15 -15 22 -17 20 -19 -20 -21 -22 24 25 -25 -26 26 29 -29 -30 -31
leaf_value=-0.031755792684331187 -0.013016769886418166 0.015693112447215583 0.018926069289237023 -0.011095468901663123 -0.04433006133352993 -0.00038300838678324888 -0.018952324912764298 0.0055138825425257755 -0.015080121531700475 0.0088416396575468383 -0.043924112464577315 0.01189335064407851 0.045301213889314768 0.0020977184157902735 0.036719855598804745 -0.033029080315697998 0.023591859193699251 -0.024764130795689062 0.022546942225958742 0.0010967699320695104 0.0010259202622243781 -0.0062485352153059575 -0.026739878177288096 -0.011721251905759844 0.00047786225253415473 -0.024694028670718789 0.022469239871243388 0.031575786999087314 -0.026814983215854227 -0.013615399750711982
leaf_weight=5539.3240183470771 1366.2683912888169 2912.2321766447276 10599.826037580147 1404.9532670974731 2146.1190305016935 1492.948593259789 1119.6230062507093 28548.534113552421 4015.0986768919975 4053.0170477516949 1588.3248404823244 30380.961734382436 124.75328391045332 1557.6559228617698 91.538066174834967 428.30972486361861 797.6492969468236 333.45373580232263 1344.679995354265 5916.2010960131884 2776.062051653862 12951.358807364479 2692.1803986635059 481.02753631398082 10502.07776549831 2535.2295178854838 195.17323109507561 87.500974509865046 4013.9914594236761 7216.5473409425467
leaf_count=277215 13853 72459 200149 16209 45182 58111 12430 728072 169273 114817 31642 647175 694 48174 880 7599 5170 3794 18360 183403 22767 431517 146721 5360 323581 39927 1837 1067 55590 332266
internal_value=-0.000148517 0.00374796 0.00578338 -0.0154839 -0.0210277 -0.0186821 0.0097357 0.0101945 -0.000818791 -0.00340196 -0.0268122 0.00863663 -0.00517286 -0.0140931 -0.0158662 -0.00351587 0.000785762 0.00706714 0.00811051 0.00591166 0.00606262 -0.00297975 -0.017682 0.0115253 -0.00323656 -0.018076 -0.015731 -0.0218763 -0.0227394 -0.0126652
internal_weight=149213 125746 113711 12034.8 23466.7 21320.6 71130 70010.3 42581.2 32074.6 7094.77 59410.5 28021.6 15781.3 14223.6 24006.5 4939.98 10506.6 10173.1 8828.43 3573.71 23578.2 12730.7 30862 23453.4 12639.1 9946.95 5506.45 5418.94 7411.72
internal_count=4015294 3064981 2918683 146298 950313 905131 1593186 1580756 1325497 1047481 104508 1380607 932664 627916 579742 763391 41790 278016 274222 255862 27937 755792 521631 652535 755098 520751 374030 72866 71799 334103
is_linear=0
shrinkage=0.05


Tree=26
num_leaves=31
num_cat=0
split_feature=9 11 51 52 12 24 21 43 52 16 46 12 52 52 12 1 40 41 41 40 52 52 51 15 47 12 25 45 11 39
split_gain=4477.71 1480.17 852.187 774.923 731.002 440.436 379.258 306.555 284.572 303.146 279.056 236.872 222.514 198.264 179.123 172.968 162.419 134.423 133.204 129.43 122.234 111.737 103.265 100.971 97.7676 103.226 92.6141 92.0672 88.3035 86.2774
threshold=0.001518863835372031 0.003997103078290821 1.0227359533309939 0.20680738985538485 0.0025918126339092855 -0.046597585082054131 1.0000000180025095e-35 0.0049286603461951026 -1.0244448184967039 1.1450772881507876 0.0044692743103951224 0.0028678197413682942 -1.1981894373893736 0.1823132857680321 0.0066791665740311154 -0.005487823160365223 0.021850646473467353 0.011060482356697323 0.017298216931521896 0.010903915856033565 -1.4390338659286497 0.87338384985923778 0.9991341531276704 0.82650354504585277 0.0070405304431915292 0.0038760128663852815 -1.4878710508346555 -0.0025316820247098799 1.0000000180025095e-35 -0.013434894848614929
decision_type=2 2 2 2 2 2 2 2 2 2 2 2 2 2 2 2 2 2 2 2 2 2 2 2 2 2 2 2 2 2
left_child=3 8 5 4 -1 26 18 10 22 11 14 28 -8 27 23 -14 21 24 -6 -12 -9 -4 -2 -7 25 -17 -3 -13 -10 -22
right_child=1 2 16 -5 6 7 12 20 9 -11 19 13 15 -15 -16 17 -18 -19 -20 -21 29 -23 -24 -25 -26 -27 -28 -29 -30 -31
